<?xml version="1.0"?>
<opencv_storage>
<cascade>
  <stageType>BOOST</stageType>
  <featureType>HAAR</featureType>
  <height>60</height>
  <width>80</width>
  <stageParams>
    <boostType>GAB</boostType>
    <minHitRate>9.9900001287460327e-01</minHitRate>
    <maxFalseAlarm>5.0000000000000000e-01</maxFalseAlarm>
    <weightTrimRate>9.4999999999999996e-01</weightTrimRate>
    <maxDepth>1</maxDepth>
    <maxWeakCount>100</maxWeakCount></stageParams>
  <featureParams>
    <maxCatCount>0</maxCatCount>
    <featSize>1</featSize>
    <mode>ALL</mode></featureParams>
  <stageNum>10</stageNum>
  <stages>
    <!-- stage 0 -->
    <_>
      <maxWeakCount>22</maxWeakCount>
      <stageThreshold>-1.3574395179748535e+00</stageThreshold>
      <weakClassifiers>
        <_>
          <internalNodes>
            0 -1 77 4.9559146165847778e-02</internalNodes>
          <leafValues>
            -2.0663650333881378e-01 5.4233407974243164e-01</leafValues></_>
        <_>
          <internalNodes>
            0 -1 143 -3.3019222319126129e-02</internalNodes>
          <leafValues>
            5.5181223154067993e-01 -1.7578321695327759e-01</leafValues></_>
        <_>
          <internalNodes>
            0 -1 6 -2.1464913152158260e-03</internalNodes>
          <leafValues>
            5.5017358064651489e-01 -1.8918979167938232e-01</leafValues></_>
        <_>
          <internalNodes>
            0 -1 140 -1.1307988315820694e-02</internalNodes>
          <leafValues>
            6.1750680208206177e-01 -1.7549754679203033e-01</leafValues></_>
        <_>
          <internalNodes>
            0 -1 161 5.1339808851480484e-03</internalNodes>
          <leafValues>
            -1.6401083767414093e-01 6.1807173490524292e-01</leafValues></_>
        <_>
          <internalNodes>
            0 -1 114 1.6015785932540894e-01</internalNodes>
          <leafValues>
            -1.0381218045949936e-01 8.0059880018234253e-01</leafValues></_>
        <_>
          <internalNodes>
            0 -1 166 -4.1377156972885132e-02</internalNodes>
          <leafValues>
            5.7694643735885620e-01 -1.2233058363199234e-01</leafValues></_>
        <_>
          <internalNodes>
            0 -1 205 1.3129580765962601e-02</internalNodes>
          <leafValues>
            -1.5015394985675812e-01 4.7902888059616089e-01</leafValues></_>
        <_>
          <internalNodes>
            0 -1 136 -9.3012489378452301e-03</internalNodes>
          <leafValues>
            5.2631473541259766e-01 -1.4610512554645538e-01</leafValues></_>
        <_>
          <internalNodes>
            0 -1 41 8.0537516623735428e-03</internalNodes>
          <leafValues>
            -2.1928501129150391e-01 3.5456866025924683e-01</leafValues></_>
        <_>
          <internalNodes>
            0 -1 280 1.9105543615296483e-03</internalNodes>
          <leafValues>
            -1.0051564872264862e-01 5.6939595937728882e-01</leafValues></_>
        <_>
          <internalNodes>
            0 -1 179 -3.1367517076432705e-03</internalNodes>
          <leafValues>
            4.8372557759284973e-01 -1.2825867533683777e-01</leafValues></_>
        <_>
          <internalNodes>
            0 -1 191 3.7713977508246899e-03</internalNodes>
          <leafValues>
            -1.2467789649963379e-01 5.2697598934173584e-01</leafValues></_>
        <_>
          <internalNodes>
            0 -1 48 -1.8842659192159772e-03</internalNodes>
          <leafValues>
            3.2094278931617737e-01 -2.0345032215118408e-01</leafValues></_>
        <_>
          <internalNodes>
            0 -1 168 4.3072728440165520e-03</internalNodes>
          <leafValues>
            -1.1894368380308151e-01 6.1108511686325073e-01</leafValues></_>
        <_>
          <internalNodes>
            0 -1 208 -1.6718680039048195e-02</internalNodes>
          <leafValues>
            5.0769346952438354e-01 -1.2647293508052826e-01</leafValues></_>
        <_>
          <internalNodes>
            0 -1 233 1.0432388633489609e-02</internalNodes>
          <leafValues>
            -1.1241599172353745e-01 5.2707952260971069e-01</leafValues></_>
        <_>
          <internalNodes>
            0 -1 172 -1.2335687875747681e-02</internalNodes>
          <leafValues>
            4.8647704720497131e-01 -1.5453162789344788e-01</leafValues></_>
        <_>
          <internalNodes>
            0 -1 347 -4.1754022240638733e-03</internalNodes>
          <leafValues>
            5.7803601026535034e-01 -1.0277961194515228e-01</leafValues></_>
        <_>
          <internalNodes>
            0 -1 222 -3.7623061798512936e-03</internalNodes>
          <leafValues>
            3.7958630919456482e-01 -1.6001647710800171e-01</leafValues></_>
        <_>
          <internalNodes>
            0 -1 216 -8.1411730498075485e-03</internalNodes>
          <leafValues>
            6.0689097642898560e-01 -1.1276824772357941e-01</leafValues></_>
        <_>
          <internalNodes>
            0 -1 307 -3.1259479001164436e-03</internalNodes>
          <leafValues>
            3.9644026756286621e-01 -1.6859504580497742e-01</leafValues></_></weakClassifiers></_>
    <!-- stage 1 -->
    <_>
      <maxWeakCount>23</maxWeakCount>
      <stageThreshold>-1.0867489576339722e+00</stageThreshold>
      <weakClassifiers>
        <_>
          <internalNodes>
            0 -1 21 -4.8942551016807556e-02</internalNodes>
          <leafValues>
            6.1194032430648804e-01 -1.0582341998815536e-01</leafValues></_>
        <_>
          <internalNodes>
            0 -1 217 3.3897403627634048e-02</internalNodes>
          <leafValues>
            -1.1616791784763336e-01 6.5216934680938721e-01</leafValues></_>
        <_>
          <internalNodes>
            0 -1 193 -5.6389518082141876e-02</internalNodes>
          <leafValues>
            5.2270972728729248e-01 -1.8417672812938690e-01</leafValues></_>
        <_>
          <internalNodes>
            0 -1 4 -5.3637269884347916e-03</internalNodes>
          <leafValues>
            5.0190389156341553e-01 -1.7018893361091614e-01</leafValues></_>
        <_>
          <internalNodes>
            0 -1 213 3.5123839974403381e-02</internalNodes>
          <leafValues>
            -1.6055218875408173e-01 4.4366693496704102e-01</leafValues></_>
        <_>
          <internalNodes>
            0 -1 223 -2.8558950871229172e-02</internalNodes>
          <leafValues>
            4.8610201478004456e-01 -1.3372811675071716e-01</leafValues></_>
        <_>
          <internalNodes>
            0 -1 265 2.2655175998806953e-03</internalNodes>
          <leafValues>
            -1.4651028811931610e-01 4.3203648924827576e-01</leafValues></_>
        <_>
          <internalNodes>
            0 -1 303 2.8795626014471054e-02</internalNodes>
          <leafValues>
            -1.3197907805442810e-01 4.5958700776100159e-01</leafValues></_>
        <_>
          <internalNodes>
            0 -1 296 1.2960978783667088e-03</internalNodes>
          <leafValues>
            1.0588633269071579e-01 -7.1007394790649414e-01</leafValues></_>
        <_>
          <internalNodes>
            0 -1 264 -2.8392840176820755e-02</internalNodes>
          <leafValues>
            4.1048821806907654e-01 -1.3735440373420715e-01</leafValues></_>
        <_>
          <internalNodes>
            0 -1 203 -8.6818635463714600e-04</internalNodes>
          <leafValues>
            -6.5409362316131592e-01 8.1339493393898010e-02</leafValues></_>
        <_>
          <internalNodes>
            0 -1 273 1.8319788068765774e-05</internalNodes>
          <leafValues>
            1.2628552317619324e-01 -4.1046184301376343e-01</leafValues></_>
        <_>
          <internalNodes>
            0 -1 99 2.0918279886245728e-02</internalNodes>
          <leafValues>
            -7.7253907918930054e-02 6.9889807701110840e-01</leafValues></_>
        <_>
          <internalNodes>
            0 -1 52 -9.3608035240322351e-04</internalNodes>
          <leafValues>
            3.5140073299407959e-01 -1.7441824078559875e-01</leafValues></_>
        <_>
          <internalNodes>
            0 -1 101 2.0178623497486115e-02</internalNodes>
          <leafValues>
            -9.4469100236892700e-02 5.9417122602462769e-01</leafValues></_>
        <_>
          <internalNodes>
            0 -1 278 2.0450588315725327e-02</internalNodes>
          <leafValues>
            -1.0635776817798615e-01 4.5878061652183533e-01</leafValues></_>
        <_>
          <internalNodes>
            0 -1 93 -1.7053653299808502e-01</internalNodes>
          <leafValues>
            5.4692178964614868e-01 -1.1395091563463211e-01</leafValues></_>
        <_>
          <internalNodes>
            0 -1 144 -1.1536006815731525e-02</internalNodes>
          <leafValues>
            4.2543947696685791e-01 -1.5803371369838715e-01</leafValues></_>
        <_>
          <internalNodes>
            0 -1 299 1.0313850361853838e-04</internalNodes>
          <leafValues>
            1.2427248060703278e-01 -4.7309306263923645e-01</leafValues></_>
        <_>
          <internalNodes>
            0 -1 73 -9.4309635460376740e-03</internalNodes>
          <leafValues>
            5.2221697568893433e-01 -1.0555601119995117e-01</leafValues></_>
        <_>
          <internalNodes>
            0 -1 109 7.1876295842230320e-03</internalNodes>
          <leafValues>
            -8.8446833193302155e-02 5.0613373517990112e-01</leafValues></_>
        <_>
          <internalNodes>
            0 -1 57 -5.8788908645510674e-03</internalNodes>
          <leafValues>
            2.8643292188644409e-01 -1.8071140348911285e-01</leafValues></_>
        <_>
          <internalNodes>
            0 -1 199 1.4891612809151411e-03</internalNodes>
          <leafValues>
            7.5910739600658417e-02 -8.0701196193695068e-01</leafValues></_></weakClassifiers></_>
    <!-- stage 2 -->
    <_>
      <maxWeakCount>34</maxWeakCount>
      <stageThreshold>-9.8348456621170044e-01</stageThreshold>
      <weakClassifiers>
        <_>
          <internalNodes>
            0 -1 56 8.1112459301948547e-02</internalNodes>
          <leafValues>
            -7.7460683882236481e-02 6.8944096565246582e-01</leafValues></_>
        <_>
          <internalNodes>
            0 -1 368 6.1420456040650606e-04</internalNodes>
          <leafValues>
            -1.4963884651660919e-01 4.5053744316101074e-01</leafValues></_>
        <_>
          <internalNodes>
            0 -1 238 -1.0581969283521175e-02</internalNodes>
          <leafValues>
            4.6669471263885498e-01 -1.7699645459651947e-01</leafValues></_>
        <_>
          <internalNodes>
            0 -1 188 2.5638200342655182e-02</internalNodes>
          <leafValues>
            -1.3504955172538757e-01 5.8231055736541748e-01</leafValues></_>
        <_>
          <internalNodes>
            0 -1 124 -3.6635447293519974e-02</internalNodes>
          <leafValues>
            5.6822848320007324e-01 -9.4861850142478943e-02</leafValues></_>
        <_>
          <internalNodes>
            0 -1 176 -4.4804040342569351e-02</internalNodes>
          <leafValues>
            5.4872167110443115e-01 -1.0254745930433273e-01</leafValues></_>
        <_>
          <internalNodes>
            0 -1 111 -4.3534591794013977e-02</internalNodes>
          <leafValues>
            4.4195383787155151e-01 -1.3360081613063812e-01</leafValues></_>
        <_>
          <internalNodes>
            0 -1 117 -3.2189711928367615e-02</internalNodes>
          <leafValues>
            8.4311622381210327e-01 -5.8346115052700043e-02</leafValues></_>
        <_>
          <internalNodes>
            0 -1 239 -1.0430559632368386e-04</internalNodes>
          <leafValues>
            -6.3855510950088501e-01 1.0805311799049377e-01</leafValues></_>
        <_>
          <internalNodes>
            0 -1 202 6.9827707484364510e-03</internalNodes>
          <leafValues>
            -8.8082283735275269e-02 6.2451249361038208e-01</leafValues></_>
        <_>
          <internalNodes>
            0 -1 254 -5.3920578211545944e-02</internalNodes>
          <leafValues>
            3.8403388857841492e-01 -1.5487511456012726e-01</leafValues></_>
        <_>
          <internalNodes>
            0 -1 244 -2.7227830141782761e-03</internalNodes>
          <leafValues>
            5.4469794034957886e-01 -9.2369310557842255e-02</leafValues></_>
        <_>
          <internalNodes>
            0 -1 72 2.0417535779415630e-05</internalNodes>
          <leafValues>
            1.5125238895416260e-01 -3.6282959580421448e-01</leafValues></_>
        <_>
          <internalNodes>
            0 -1 84 8.0955326557159424e-03</internalNodes>
          <leafValues>
            -8.3235763013362885e-02 5.3802007436752319e-01</leafValues></_>
        <_>
          <internalNodes>
            0 -1 181 7.2908098809421062e-04</internalNodes>
          <leafValues>
            7.0159904658794403e-02 -6.8832510709762573e-01</leafValues></_>
        <_>
          <internalNodes>
            0 -1 119 -1.9353382289409637e-02</internalNodes>
          <leafValues>
            3.3261826634407043e-01 -1.5868663787841797e-01</leafValues></_>
        <_>
          <internalNodes>
            0 -1 194 -3.7912707775831223e-03</internalNodes>
          <leafValues>
            4.8717775940895081e-01 -1.0249432921409607e-01</leafValues></_>
        <_>
          <internalNodes>
            0 -1 149 1.2658312916755676e-02</internalNodes>
          <leafValues>
            -1.3994719088077545e-01 3.7332004308700562e-01</leafValues></_>
        <_>
          <internalNodes>
            0 -1 289 3.1951185519574210e-05</internalNodes>
          <leafValues>
            1.5590952336788177e-01 -3.4061345458030701e-01</leafValues></_>
        <_>
          <internalNodes>
            0 -1 263 2.3593511432409286e-03</internalNodes>
          <leafValues>
            1.0877300798892975e-01 -4.6093299984931946e-01</leafValues></_>
        <_>
          <internalNodes>
            0 -1 371 7.2924821870401502e-04</internalNodes>
          <leafValues>
            -9.7997806966304779e-02 5.2890157699584961e-01</leafValues></_>
        <_>
          <internalNodes>
            0 -1 78 1.2528479564934969e-03</internalNodes>
          <leafValues>
            -9.8419457674026489e-02 4.5583608746528625e-01</leafValues></_>
        <_>
          <internalNodes>
            0 -1 30 1.4902179827913642e-04</internalNodes>
          <leafValues>
            1.2894454598426819e-01 -4.1222074627876282e-01</leafValues></_>
        <_>
          <internalNodes>
            0 -1 126 -8.8791623711585999e-03</internalNodes>
          <leafValues>
            4.1803425550460815e-01 -1.2825149297714233e-01</leafValues></_>
        <_>
          <internalNodes>
            0 -1 82 9.0869914856739342e-05</internalNodes>
          <leafValues>
            1.3093362748622894e-01 -4.2437976598739624e-01</leafValues></_>
        <_>
          <internalNodes>
            0 -1 279 -9.5890148077160120e-04</internalNodes>
          <leafValues>
            2.6473122835159302e-01 -1.9871330261230469e-01</leafValues></_>
        <_>
          <internalNodes>
            0 -1 351 -6.3117654062807560e-03</internalNodes>
          <leafValues>
            4.7678595781326294e-01 -1.0130766779184341e-01</leafValues></_>
        <_>
          <internalNodes>
            0 -1 321 -1.3418409042060375e-02</internalNodes>
          <leafValues>
            3.9826834201812744e-01 -1.2454270571470261e-01</leafValues></_>
        <_>
          <internalNodes>
            0 -1 165 -2.1081697195768356e-02</internalNodes>
          <leafValues>
            6.7182356119155884e-01 -7.2918869554996490e-02</leafValues></_>
        <_>
          <internalNodes>
            0 -1 91 -2.9580336995422840e-03</internalNodes>
          <leafValues>
            5.2249771356582642e-01 -9.4493761658668518e-02</leafValues></_>
        <_>
          <internalNodes>
            0 -1 349 -1.8969520169775933e-05</internalNodes>
          <leafValues>
            -3.2641232013702393e-01 1.6340892016887665e-01</leafValues></_>
        <_>
          <internalNodes>
            0 -1 256 8.3241015672683716e-03</internalNodes>
          <leafValues>
            -1.2175492197275162e-01 4.0266969799995422e-01</leafValues></_>
        <_>
          <internalNodes>
            0 -1 249 -1.0829016100615263e-03</internalNodes>
          <leafValues>
            -6.7178928852081299e-01 7.6021052896976471e-02</leafValues></_>
        <_>
          <internalNodes>
            0 -1 358 -3.3920805435627699e-04</internalNodes>
          <leafValues>
            3.3677786588668823e-01 -1.4697639644145966e-01</leafValues></_></weakClassifiers></_>
    <!-- stage 3 -->
    <_>
      <maxWeakCount>34</maxWeakCount>
      <stageThreshold>-1.1377272605895996e+00</stageThreshold>
      <weakClassifiers>
        <_>
          <internalNodes>
            0 -1 67 2.8504034876823425e-01</internalNodes>
          <leafValues>
            -5.3167421370744705e-02 6.8055558204650879e-01</leafValues></_>
        <_>
          <internalNodes>
            0 -1 58 1.3345847837626934e-02</internalNodes>
          <leafValues>
            -1.5051122009754181e-01 3.6830097436904907e-01</leafValues></_>
        <_>
          <internalNodes>
            0 -1 271 -2.2864113561809063e-03</internalNodes>
          <leafValues>
            3.6264103651046753e-01 -1.8075068295001984e-01</leafValues></_>
        <_>
          <internalNodes>
            0 -1 12 -4.0553574217483401e-04</internalNodes>
          <leafValues>
            3.5196027159690857e-01 -1.5164311230182648e-01</leafValues></_>
        <_>
          <internalNodes>
            0 -1 189 -7.8860059380531311e-02</internalNodes>
          <leafValues>
            5.2351242303848267e-01 -1.0494680702686310e-01</leafValues></_>
        <_>
          <internalNodes>
            0 -1 226 3.9426390081644058e-02</internalNodes>
          <leafValues>
            -9.6704900264739990e-02 5.5604052543640137e-01</leafValues></_>
        <_>
          <internalNodes>
            0 -1 164 -4.3079394847154617e-02</internalNodes>
          <leafValues>
            -4.1564941406250000e-01 1.1912117153406143e-01</leafValues></_>
        <_>
          <internalNodes>
            0 -1 55 1.2225951650179923e-05</internalNodes>
          <leafValues>
            1.6626141965389252e-01 -3.5579898953437805e-01</leafValues></_>
        <_>
          <internalNodes>
            0 -1 132 -5.5866306647658348e-03</internalNodes>
          <leafValues>
            4.5362460613250732e-01 -1.2168604135513306e-01</leafValues></_>
        <_>
          <internalNodes>
            0 -1 250 -4.3930411338806152e-03</internalNodes>
          <leafValues>
            5.0403094291687012e-01 -9.7509086132049561e-02</leafValues></_>
        <_>
          <internalNodes>
            0 -1 272 -6.7660806234925985e-04</internalNodes>
          <leafValues>
            -5.5207389593124390e-01 1.0656562447547913e-01</leafValues></_>
        <_>
          <internalNodes>
            0 -1 245 2.1651670336723328e-02</internalNodes>
          <leafValues>
            -1.0504405945539474e-01 5.3544777631759644e-01</leafValues></_>
        <_>
          <internalNodes>
            0 -1 306 -1.1713426560163498e-02</internalNodes>
          <leafValues>
            4.2954316735267639e-01 -1.0874537378549576e-01</leafValues></_>
        <_>
          <internalNodes>
            0 -1 231 8.1401830539107323e-04</internalNodes>
          <leafValues>
            -1.4175394177436829e-01 3.1819778680801392e-01</leafValues></_>
        <_>
          <internalNodes>
            0 -1 335 -1.9023413769900799e-03</internalNodes>
          <leafValues>
            4.2528769373893738e-01 -1.1434853821992874e-01</leafValues></_>
        <_>
          <internalNodes>
            0 -1 17 2.8924318030476570e-04</internalNodes>
          <leafValues>
            -1.2975542247295380e-01 3.6677643656730652e-01</leafValues></_>
        <_>
          <internalNodes>
            0 -1 293 9.0217506512999535e-03</internalNodes>
          <leafValues>
            -9.4383157789707184e-02 4.5035898685455322e-01</leafValues></_>
        <_>
          <internalNodes>
            0 -1 123 -1.8395800143480301e-02</internalNodes>
          <leafValues>
            5.7384508848190308e-01 -7.8501500189304352e-02</leafValues></_>
        <_>
          <internalNodes>
            0 -1 128 2.6554957032203674e-02</internalNodes>
          <leafValues>
            -6.7697219550609589e-02 7.3961901664733887e-01</leafValues></_>
        <_>
          <internalNodes>
            0 -1 221 -4.3014984112232924e-04</internalNodes>
          <leafValues>
            3.7258467078208923e-01 -1.2615299224853516e-01</leafValues></_>
        <_>
          <internalNodes>
            0 -1 304 -4.4882660731673241e-03</internalNodes>
          <leafValues>
            3.2808214426040649e-01 -1.4216363430023193e-01</leafValues></_>
        <_>
          <internalNodes>
            0 -1 243 -4.3677969370037317e-04</internalNodes>
          <leafValues>
            -4.6490770578384399e-01 1.1418257653713226e-01</leafValues></_>
        <_>
          <internalNodes>
            0 -1 106 6.0726115480065346e-03</internalNodes>
          <leafValues>
            -1.1951550096273422e-01 4.3735235929489136e-01</leafValues></_>
        <_>
          <internalNodes>
            0 -1 37 -5.9474762529134750e-03</internalNodes>
          <leafValues>
            3.4331452846527100e-01 -1.3354654610157013e-01</leafValues></_>
        <_>
          <internalNodes>
            0 -1 305 -2.8993243351578712e-02</internalNodes>
          <leafValues>
            4.0257355570793152e-01 -1.3751532137393951e-01</leafValues></_>
        <_>
          <internalNodes>
            0 -1 247 1.4431883755605668e-05</internalNodes>
          <leafValues>
            1.3980481028556824e-01 -3.1514522433280945e-01</leafValues></_>
        <_>
          <internalNodes>
            0 -1 102 -1.4235528651624918e-03</internalNodes>
          <leafValues>
            3.4090116620063782e-01 -1.2818901240825653e-01</leafValues></_>
        <_>
          <internalNodes>
            0 -1 100 9.5625557005405426e-03</internalNodes>
          <leafValues>
            -7.8652448952198029e-02 5.7706636190414429e-01</leafValues></_>
        <_>
          <internalNodes>
            0 -1 43 -3.4727756865322590e-03</internalNodes>
          <leafValues>
            2.3621362447738647e-01 -1.9244162738323212e-01</leafValues></_>
        <_>
          <internalNodes>
            0 -1 160 4.4944079127162695e-04</internalNodes>
          <leafValues>
            -1.3684459030628204e-01 3.5591271519660950e-01</leafValues></_>
        <_>
          <internalNodes>
            0 -1 219 1.3622152619063854e-03</internalNodes>
          <leafValues>
            8.3607032895088196e-02 -6.5648049116134644e-01</leafValues></_>
        <_>
          <internalNodes>
            0 -1 178 5.9037283062934875e-04</internalNodes>
          <leafValues>
            -1.1757317185401917e-01 5.1018267869949341e-01</leafValues></_>
        <_>
          <internalNodes>
            0 -1 196 -6.4766185823827982e-04</internalNodes>
          <leafValues>
            3.7209966778755188e-01 -1.2282262742519379e-01</leafValues></_>
        <_>
          <internalNodes>
            0 -1 54 1.9335525576025248e-04</internalNodes>
          <leafValues>
            1.1746156215667725e-01 -4.4006165862083435e-01</leafValues></_></weakClassifiers></_>
    <!-- stage 4 -->
    <_>
      <maxWeakCount>39</maxWeakCount>
      <stageThreshold>-1.0665140151977539e+00</stageThreshold>
      <weakClassifiers>
        <_>
          <internalNodes>
            0 -1 79 3.3305105566978455e-01</internalNodes>
          <leafValues>
            -4.1479822248220444e-02 6.5865385532379150e-01</leafValues></_>
        <_>
          <internalNodes>
            0 -1 71 2.4033349007368088e-02</internalNodes>
          <leafValues>
            -8.9006997644901276e-02 5.1607072353363037e-01</leafValues></_>
        <_>
          <internalNodes>
            0 -1 13 -5.3400441538542509e-04</internalNodes>
          <leafValues>
            3.1571868062019348e-01 -1.5944662690162659e-01</leafValues></_>
        <_>
          <internalNodes>
            0 -1 183 -2.6017006486654282e-02</internalNodes>
          <leafValues>
            2.8519755601882935e-01 -1.6210371255874634e-01</leafValues></_>
        <_>
          <internalNodes>
            0 -1 169 -3.8754917681217194e-02</internalNodes>
          <leafValues>
            5.8011800050735474e-01 -7.7625803649425507e-02</leafValues></_>
        <_>
          <internalNodes>
            0 -1 290 3.6547008901834488e-02</internalNodes>
          <leafValues>
            -7.4441537261009216e-02 5.2443516254425049e-01</leafValues></_>
        <_>
          <internalNodes>
            0 -1 225 -2.3562239482998848e-02</internalNodes>
          <leafValues>
            7.0139712095260620e-01 -5.6878868490457535e-02</leafValues></_>
        <_>
          <internalNodes>
            0 -1 83 3.3407341106794775e-05</internalNodes>
          <leafValues>
            1.2920758128166199e-01 -3.1208658218383789e-01</leafValues></_>
        <_>
          <internalNodes>
            0 -1 135 2.3406494874507189e-03</internalNodes>
          <leafValues>
            -1.2471643835306168e-01 3.1544539332389832e-01</leafValues></_>
        <_>
          <internalNodes>
            0 -1 353 -2.3047165013849735e-03</internalNodes>
          <leafValues>
            4.5000171661376953e-01 -6.4054168760776520e-02</leafValues></_>
        <_>
          <internalNodes>
            0 -1 369 5.5437977425754070e-04</internalNodes>
          <leafValues>
            -1.4238986372947693e-01 3.1767389178276062e-01</leafValues></_>
        <_>
          <internalNodes>
            0 -1 192 1.4210982248187065e-02</internalNodes>
          <leafValues>
            -8.8608466088771820e-02 5.0448083877563477e-01</leafValues></_>
        <_>
          <internalNodes>
            0 -1 105 -2.1365534514188766e-02</internalNodes>
          <leafValues>
            4.0846768021583557e-01 -1.0159966349601746e-01</leafValues></_>
        <_>
          <internalNodes>
            0 -1 228 -1.0296626714989543e-04</internalNodes>
          <leafValues>
            -4.5148375630378723e-01 9.2291034758090973e-02</leafValues></_>
        <_>
          <internalNodes>
            0 -1 315 5.9682849794626236e-02</internalNodes>
          <leafValues>
            -9.0730324387550354e-02 4.5545497536659241e-01</leafValues></_>
        <_>
          <internalNodes>
            0 -1 151 -3.9294040761888027e-03</internalNodes>
          <leafValues>
            2.7672076225280762e-01 -1.5982314944267273e-01</leafValues></_>
        <_>
          <internalNodes>
            0 -1 5 3.8133855559863150e-04</internalNodes>
          <leafValues>
            1.0968723893165588e-01 -4.0355709195137024e-01</leafValues></_>
        <_>
          <internalNodes>
            0 -1 14 3.4428073558956385e-04</internalNodes>
          <leafValues>
            -9.9925875663757324e-02 4.5146945118904114e-01</leafValues></_>
        <_>
          <internalNodes>
            0 -1 339 3.6796194763155654e-05</internalNodes>
          <leafValues>
            1.3098914921283722e-01 -3.3290123939514160e-01</leafValues></_>
        <_>
          <internalNodes>
            0 -1 95 -6.8209222517907619e-03</internalNodes>
          <leafValues>
            4.6055352687835693e-01 -7.1529902517795563e-02</leafValues></_>
        <_>
          <internalNodes>
            0 -1 150 -3.0617215670645237e-03</internalNodes>
          <leafValues>
            2.7474617958068848e-01 -1.7288528382778168e-01</leafValues></_>
        <_>
          <internalNodes>
            0 -1 268 6.6680187592282891e-04</internalNodes>
          <leafValues>
            5.2087623625993729e-02 -6.9592499732971191e-01</leafValues></_>
        <_>
          <internalNodes>
            0 -1 372 -3.8442190270870924e-04</internalNodes>
          <leafValues>
            5.4185891151428223e-01 -7.3355540633201599e-02</leafValues></_>
        <_>
          <internalNodes>
            0 -1 32 -1.6339179128408432e-03</internalNodes>
          <leafValues>
            -7.2900497913360596e-01 5.6594874709844589e-02</leafValues></_>
        <_>
          <internalNodes>
            0 -1 210 -1.5564330387860537e-03</internalNodes>
          <leafValues>
            4.4273427128791809e-01 -9.2862918972969055e-02</leafValues></_>
        <_>
          <internalNodes>
            0 -1 40 1.0537269190535881e-05</internalNodes>
          <leafValues>
            1.3166508078575134e-01 -3.0460047721862793e-01</leafValues></_>
        <_>
          <internalNodes>
            0 -1 248 5.5904116015881300e-04</internalNodes>
          <leafValues>
            -8.0156058073043823e-02 4.6913796663284302e-01</leafValues></_>
        <_>
          <internalNodes>
            0 -1 343 2.9880914371460676e-04</internalNodes>
          <leafValues>
            8.5927262902259827e-02 -4.6794298291206360e-01</leafValues></_>
        <_>
          <internalNodes>
            0 -1 28 5.9734861133620143e-04</internalNodes>
          <leafValues>
            -1.0747969150543213e-01 3.8977235555648804e-01</leafValues></_>
        <_>
          <internalNodes>
            0 -1 18 -4.4883991358801723e-04</internalNodes>
          <leafValues>
            3.9096686244010925e-01 -1.0772874951362610e-01</leafValues></_>
        <_>
          <internalNodes>
            0 -1 241 -1.8218540935777128e-04</internalNodes>
          <leafValues>
            -4.9208027124404907e-01 9.0183928608894348e-02</leafValues></_>
        <_>
          <internalNodes>
            0 -1 204 -8.0362590961158276e-04</internalNodes>
          <leafValues>
            3.3031409978866577e-01 -1.3169877231121063e-01</leafValues></_>
        <_>
          <internalNodes>
            0 -1 133 6.8742511793971062e-03</internalNodes>
          <leafValues>
            -8.9232087135314941e-02 4.6138909459114075e-01</leafValues></_>
        <_>
          <internalNodes>
            0 -1 325 -2.3806393146514893e-03</internalNodes>
          <leafValues>
            2.9582548141479492e-01 -1.3570111989974976e-01</leafValues></_>
        <_>
          <internalNodes>
            0 -1 3 5.3809871897101402e-03</internalNodes>
          <leafValues>
            8.6607851088047028e-02 -5.2182686328887939e-01</leafValues></_>
        <_>
          <internalNodes>
            0 -1 87 -6.4242862164974213e-02</internalNodes>
          <leafValues>
            6.9956856966018677e-01 -6.6651009023189545e-02</leafValues></_>
        <_>
          <internalNodes>
            0 -1 63 -1.0067675262689590e-02</internalNodes>
          <leafValues>
            2.8485363721847534e-01 -1.5340071916580200e-01</leafValues></_>
        <_>
          <internalNodes>
            0 -1 309 -3.0220821499824524e-03</internalNodes>
          <leafValues>
            -3.9764168858528137e-01 1.1242295801639557e-01</leafValues></_>
        <_>
          <internalNodes>
            0 -1 308 4.7959203948266804e-04</internalNodes>
          <leafValues>
            -2.0190618932247162e-01 2.1437585353851318e-01</leafValues></_></weakClassifiers></_>
    <!-- stage 5 -->
    <_>
      <maxWeakCount>41</maxWeakCount>
      <stageThreshold>-1.0633208751678467e+00</stageThreshold>
      <weakClassifiers>
        <_>
          <internalNodes>
            0 -1 120 1.8060091137886047e-01</internalNodes>
          <leafValues>
            -6.4516128040850163e-03 6.2352943420410156e-01</leafValues></_>
        <_>
          <internalNodes>
            0 -1 198 -2.7810517698526382e-02</internalNodes>
          <leafValues>
            3.3916386961936951e-01 -1.4101019501686096e-01</leafValues></_>
        <_>
          <internalNodes>
            0 -1 2 -1.2826718389987946e-02</internalNodes>
          <leafValues>
            3.2240310311317444e-01 -1.6341021656990051e-01</leafValues></_>
        <_>
          <internalNodes>
            0 -1 62 -1.7735262215137482e-01</internalNodes>
          <leafValues>
            2.9959630966186523e-01 -1.6023474931716919e-01</leafValues></_>
        <_>
          <internalNodes>
            0 -1 262 -1.2731107417494059e-03</internalNodes>
          <leafValues>
            4.1126534342765808e-01 -1.0438021272420883e-01</leafValues></_>
        <_>
          <internalNodes>
            0 -1 108 -3.8368709385395050e-02</internalNodes>
          <leafValues>
            3.7106433510780334e-01 -1.0993603616952896e-01</leafValues></_>
        <_>
          <internalNodes>
            0 -1 294 -1.6107306582853198e-03</internalNodes>
          <leafValues>
            2.7622953057289124e-01 -1.4722469449043274e-01</leafValues></_>
        <_>
          <internalNodes>
            0 -1 286 -1.0645679431036115e-03</internalNodes>
          <leafValues>
            3.9973241090774536e-01 -8.2944929599761963e-02</leafValues></_>
        <_>
          <internalNodes>
            0 -1 252 2.8591137379407883e-05</internalNodes>
          <leafValues>
            1.3290430605411530e-01 -3.0282267928123474e-01</leafValues></_>
        <_>
          <internalNodes>
            0 -1 363 -1.3606119318865240e-04</internalNodes>
          <leafValues>
            4.4459494948387146e-01 -7.7714130282402039e-02</leafValues></_>
        <_>
          <internalNodes>
            0 -1 138 -2.8794318437576294e-02</internalNodes>
          <leafValues>
            1.8260371685028076e-01 -2.2964906692504883e-01</leafValues></_>
        <_>
          <internalNodes>
            0 -1 227 1.7577048391103745e-02</internalNodes>
          <leafValues>
            -6.7180179059505463e-02 4.7059619426727295e-01</leafValues></_>
        <_>
          <internalNodes>
            0 -1 364 2.1910258510615677e-04</internalNodes>
          <leafValues>
            -8.7291404604911804e-02 4.9991184473037720e-01</leafValues></_>
        <_>
          <internalNodes>
            0 -1 331 8.1403677540947683e-06</internalNodes>
          <leafValues>
            1.6106295585632324e-01 -2.8098502755165100e-01</leafValues></_>
        <_>
          <internalNodes>
            0 -1 215 1.4140406623482704e-02</internalNodes>
          <leafValues>
            -1.0382486879825592e-01 4.5454886555671692e-01</leafValues></_>
        <_>
          <internalNodes>
            0 -1 260 -6.1646511312574148e-04</internalNodes>
          <leafValues>
            -8.0348753929138184e-01 5.9184577316045761e-02</leafValues></_>
        <_>
          <internalNodes>
            0 -1 287 3.2201647991314530e-04</internalNodes>
          <leafValues>
            -1.0861783474683762e-01 4.5289680361747742e-01</leafValues></_>
        <_>
          <internalNodes>
            0 -1 340 -1.3234646758064628e-03</internalNodes>
          <leafValues>
            3.2542026042938232e-01 -1.1955361813306808e-01</leafValues></_>
        <_>
          <internalNodes>
            0 -1 26 -1.2235730537213385e-04</internalNodes>
          <leafValues>
            -3.2431700825691223e-01 1.4391745626926422e-01</leafValues></_>
        <_>
          <internalNodes>
            0 -1 35 -8.3430830272845924e-05</internalNodes>
          <leafValues>
            -4.3307733535766602e-01 7.6996065676212311e-02</leafValues></_>
        <_>
          <internalNodes>
            0 -1 281 -2.9846716206520796e-03</internalNodes>
          <leafValues>
            2.3698413372039795e-01 -1.6500028967857361e-01</leafValues></_>
        <_>
          <internalNodes>
            0 -1 125 1.9970745779573917e-03</internalNodes>
          <leafValues>
            -1.1715903878211975e-01 3.4581843018531799e-01</leafValues></_>
        <_>
          <internalNodes>
            0 -1 174 -5.6031532585620880e-03</internalNodes>
          <leafValues>
            5.1396131515502930e-01 -7.1700476109981537e-02</leafValues></_>
        <_>
          <internalNodes>
            0 -1 8 3.7984995287843049e-05</internalNodes>
          <leafValues>
            1.2832604348659515e-01 -3.3751529455184937e-01</leafValues></_>
        <_>
          <internalNodes>
            0 -1 53 -1.0858147870749235e-03</internalNodes>
          <leafValues>
            3.2648321986198425e-01 -1.3910312950611115e-01</leafValues></_>
        <_>
          <internalNodes>
            0 -1 374 -1.8039469141513109e-03</internalNodes>
          <leafValues>
            -6.2143325805664062e-01 8.3174251019954681e-02</leafValues></_>
        <_>
          <internalNodes>
            0 -1 121 -1.0861398186534643e-03</internalNodes>
          <leafValues>
            5.7854741811752319e-01 -8.8243924081325531e-02</leafValues></_>
        <_>
          <internalNodes>
            0 -1 209 1.5288667753338814e-02</internalNodes>
          <leafValues>
            -5.2849564701318741e-02 6.2294465303421021e-01</leafValues></_>
        <_>
          <internalNodes>
            0 -1 22 -6.5432058181613684e-04</internalNodes>
          <leafValues>
            2.0181216299533844e-01 -2.0795257389545441e-01</leafValues></_>
        <_>
          <internalNodes>
            0 -1 81 -2.4902734905481339e-02</internalNodes>
          <leafValues>
            2.7973875403404236e-01 -1.4600062370300293e-01</leafValues></_>
        <_>
          <internalNodes>
            0 -1 327 -1.1578517034649849e-02</internalNodes>
          <leafValues>
            6.3406902551651001e-01 -6.9012954831123352e-02</leafValues></_>
        <_>
          <internalNodes>
            0 -1 116 -3.9226858643814921e-04</internalNodes>
          <leafValues>
            7.1368026733398438e-01 -4.1937202215194702e-02</leafValues></_>
        <_>
          <internalNodes>
            0 -1 230 1.8377864762442186e-05</internalNodes>
          <leafValues>
            1.1663509160280228e-01 -3.4521728754043579e-01</leafValues></_>
        <_>
          <internalNodes>
            0 -1 129 -3.5481154918670654e-04</internalNodes>
          <leafValues>
            3.4438866376876831e-01 -1.1282600462436676e-01</leafValues></_>
        <_>
          <internalNodes>
            0 -1 157 1.0858948808163404e-03</internalNodes>
          <leafValues>
            -8.0125190317630768e-02 4.9567097425460815e-01</leafValues></_>
        <_>
          <internalNodes>
            0 -1 337 -2.4047694168984890e-03</internalNodes>
          <leafValues>
            2.6840683817863464e-01 -1.5295302867889404e-01</leafValues></_>
        <_>
          <internalNodes>
            0 -1 85 3.0671576969325542e-03</internalNodes>
          <leafValues>
            -1.4584396779537201e-01 2.7558454871177673e-01</leafValues></_>
        <_>
          <internalNodes>
            0 -1 104 1.5865570306777954e-01</internalNodes>
          <leafValues>
            -6.6121116280555725e-02 5.9872448444366455e-01</leafValues></_>
        <_>
          <internalNodes>
            0 -1 291 2.0827975822612643e-04</internalNodes>
          <leafValues>
            1.1356043815612793e-01 -3.6169430613517761e-01</leafValues></_>
        <_>
          <internalNodes>
            0 -1 342 4.2540038703009486e-04</internalNodes>
          <leafValues>
            -9.5152601599693298e-02 4.2811381816864014e-01</leafValues></_>
        <_>
          <internalNodes>
            0 -1 186 -2.1202056668698788e-03</internalNodes>
          <leafValues>
            -7.0465457439422607e-01 6.1955526471138000e-02</leafValues></_></weakClassifiers></_>
    <!-- stage 6 -->
    <_>
      <maxWeakCount>42</maxWeakCount>
      <stageThreshold>-9.9105024337768555e-01</stageThreshold>
      <weakClassifiers>
        <_>
          <internalNodes>
            0 -1 66 3.3015382289886475e-01</internalNodes>
          <leafValues>
            -3.0303031206130981e-02 4.5454546809196472e-01</leafValues></_>
        <_>
          <internalNodes>
            0 -1 311 -1.6211117617785931e-03</internalNodes>
          <leafValues>
            2.9156804084777832e-01 -1.6417153179645538e-01</leafValues></_>
        <_>
          <internalNodes>
            0 -1 118 -6.8126893602311611e-03</internalNodes>
          <leafValues>
            5.6063568592071533e-01 -1.0030446946620941e-01</leafValues></_>
        <_>
          <internalNodes>
            0 -1 232 3.2636353280395269e-03</internalNodes>
          <leafValues>
            -7.3337346315383911e-02 3.9208564162254333e-01</leafValues></_>
        <_>
          <internalNodes>
            0 -1 212 -1.7008080612868071e-03</internalNodes>
          <leafValues>
            3.8276615738868713e-01 -1.0631362348794937e-01</leafValues></_>
        <_>
          <internalNodes>
            0 -1 7 -3.2047997228801250e-03</internalNodes>
          <leafValues>
            3.8904118537902832e-01 -1.0637269169092178e-01</leafValues></_>
        <_>
          <internalNodes>
            0 -1 201 -1.7760114278644323e-03</internalNodes>
          <leafValues>
            3.1492939591407776e-01 -1.2102831900119781e-01</leafValues></_>
        <_>
          <internalNodes>
            0 -1 220 -2.6086298748850822e-03</internalNodes>
          <leafValues>
            2.4726122617721558e-01 -1.5031859278678894e-01</leafValues></_>
        <_>
          <internalNodes>
            0 -1 236 -2.6135992258787155e-02</internalNodes>
          <leafValues>
            4.8531174659729004e-01 -5.9941295534372330e-02</leafValues></_>
        <_>
          <internalNodes>
            0 -1 110 1.3168799341656268e-05</internalNodes>
          <leafValues>
            1.2386525422334671e-01 -2.9332154989242554e-01</leafValues></_>
        <_>
          <internalNodes>
            0 -1 360 -1.0452381684444845e-04</internalNodes>
          <leafValues>
            2.6457509398460388e-01 -1.4339600503444672e-01</leafValues></_>
        <_>
          <internalNodes>
            0 -1 269 -2.2765423636883497e-04</internalNodes>
          <leafValues>
            -5.8812361955642700e-01 5.8801621198654175e-02</leafValues></_>
        <_>
          <internalNodes>
            0 -1 370 -2.7376326033845544e-04</internalNodes>
          <leafValues>
            2.6480692625045776e-01 -1.2724398076534271e-01</leafValues></_>
        <_>
          <internalNodes>
            0 -1 270 7.8664039028808475e-04</internalNodes>
          <leafValues>
            -9.9621012806892395e-02 3.2838544249534607e-01</leafValues></_>
        <_>
          <internalNodes>
            0 -1 292 -1.6288049664581195e-05</internalNodes>
          <leafValues>
            -2.9231348633766174e-01 1.1933867633342743e-01</leafValues></_>
        <_>
          <internalNodes>
            0 -1 283 2.4551205337047577e-02</internalNodes>
          <leafValues>
            -4.9553502351045609e-02 6.8591874837875366e-01</leafValues></_>
        <_>
          <internalNodes>
            0 -1 373 8.1537035293877125e-04</internalNodes>
          <leafValues>
            6.6397674381732941e-02 -6.3083767890930176e-01</leafValues></_>
        <_>
          <internalNodes>
            0 -1 115 2.3145825252868235e-05</internalNodes>
          <leafValues>
            1.1959752440452576e-01 -3.0708903074264526e-01</leafValues></_>
        <_>
          <internalNodes>
            0 -1 187 -4.1312101529911160e-04</internalNodes>
          <leafValues>
            4.2922249436378479e-01 -8.9657045900821686e-02</leafValues></_>
        <_>
          <internalNodes>
            0 -1 246 -1.8430548952892423e-03</internalNodes>
          <leafValues>
            2.9294374585151672e-01 -1.2195839732885361e-01</leafValues></_>
        <_>
          <internalNodes>
            0 -1 152 1.3467630371451378e-02</internalNodes>
          <leafValues>
            -7.1130588650703430e-02 4.9423477053642273e-01</leafValues></_>
        <_>
          <internalNodes>
            0 -1 103 2.9971506446599960e-02</internalNodes>
          <leafValues>
            -6.7804358899593353e-02 4.9316826462745667e-01</leafValues></_>
        <_>
          <internalNodes>
            0 -1 282 3.6465290468186140e-03</internalNodes>
          <leafValues>
            -8.2720950245857239e-02 4.5967608690261841e-01</leafValues></_>
        <_>
          <internalNodes>
            0 -1 46 3.4812638163566589e-01</internalNodes>
          <leafValues>
            -4.8103887587785721e-02 7.0736944675445557e-01</leafValues></_>
        <_>
          <internalNodes>
            0 -1 297 -7.1853581175673753e-05</internalNodes>
          <leafValues>
            2.2359505295753479e-01 -1.7458313703536987e-01</leafValues></_>
        <_>
          <internalNodes>
            0 -1 345 -6.8776924163103104e-03</internalNodes>
          <leafValues>
            -5.0872194766998291e-01 7.5159065425395966e-02</leafValues></_>
        <_>
          <internalNodes>
            0 -1 317 -1.4274179702624679e-03</internalNodes>
          <leafValues>
            -7.5196057558059692e-01 4.1110176593065262e-02</leafValues></_>
        <_>
          <internalNodes>
            0 -1 341 -8.4597070235759020e-04</internalNodes>
          <leafValues>
            3.5901841521263123e-01 -1.1078199744224548e-01</leafValues></_>
        <_>
          <internalNodes>
            0 -1 323 4.6908644435461611e-05</internalNodes>
          <leafValues>
            1.4222373068332672e-01 -2.6648822426795959e-01</leafValues></_>
        <_>
          <internalNodes>
            0 -1 61 -1.2667162343859673e-02</internalNodes>
          <leafValues>
            2.1741153299808502e-01 -1.6560198366641998e-01</leafValues></_>
        <_>
          <internalNodes>
            0 -1 195 -1.4232241665013134e-04</internalNodes>
          <leafValues>
            3.2768324017524719e-01 -1.0886386781930923e-01</leafValues></_>
        <_>
          <internalNodes>
            0 -1 356 5.6483363732695580e-04</internalNodes>
          <leafValues>
            8.2748882472515106e-02 -4.5277041196823120e-01</leafValues></_>
        <_>
          <internalNodes>
            0 -1 9 -5.0210785120725632e-03</internalNodes>
          <leafValues>
            3.9810627698898315e-01 -9.8935715854167938e-02</leafValues></_>
        <_>
          <internalNodes>
            0 -1 80 4.9731675535440445e-03</internalNodes>
          <leafValues>
            -6.9776907563209534e-02 5.0299191474914551e-01</leafValues></_>
        <_>
          <internalNodes>
            0 -1 328 -5.1982081495225430e-03</internalNodes>
          <leafValues>
            2.1908724308013916e-01 -1.5776380896568298e-01</leafValues></_>
        <_>
          <internalNodes>
            0 -1 257 -8.5608835797756910e-04</internalNodes>
          <leafValues>
            -6.8621838092803955e-01 4.4376716017723083e-02</leafValues></_>
        <_>
          <internalNodes>
            0 -1 300 -3.3282032236456871e-03</internalNodes>
          <leafValues>
            4.3337693810462952e-01 -8.4867104887962341e-02</leafValues></_>
        <_>
          <internalNodes>
            0 -1 31 -4.1813898133113980e-04</internalNodes>
          <leafValues>
            -3.5811030864715576e-01 1.1427894234657288e-01</leafValues></_>
        <_>
          <internalNodes>
            0 -1 122 -6.6074344795197248e-04</internalNodes>
          <leafValues>
            2.7383264899253845e-01 -1.4033174514770508e-01</leafValues></_>
        <_>
          <internalNodes>
            0 -1 36 1.9815182895399630e-04</internalNodes>
          <leafValues>
            -6.8402267992496490e-02 5.0977110862731934e-01</leafValues></_>
        <_>
          <internalNodes>
            0 -1 333 1.0355201993661467e-05</internalNodes>
          <leafValues>
            1.4544680714607239e-01 -2.6825553178787231e-01</leafValues></_>
        <_>
          <internalNodes>
            0 -1 113 -4.9914210103452206e-04</internalNodes>
          <leafValues>
            5.5371880531311035e-01 -6.4650446176528931e-02</leafValues></_></weakClassifiers></_>
    <!-- stage 7 -->
    <_>
      <maxWeakCount>44</maxWeakCount>
      <stageThreshold>-8.8213044404983521e-01</stageThreshold>
      <weakClassifiers>
        <_>
          <internalNodes>
            0 -1 10 7.9291433095932007e-02</internalNodes>
          <leafValues>
            -8.0959521234035492e-02 3.5565820336341858e-01</leafValues></_>
        <_>
          <internalNodes>
            0 -1 329 1.3398976996541023e-02</internalNodes>
          <leafValues>
            -1.2704183161258698e-01 2.9545256495475769e-01</leafValues></_>
        <_>
          <internalNodes>
            0 -1 127 6.2366142868995667e-02</internalNodes>
          <leafValues>
            -1.0315055260434747e-03 -8.0312889814376831e-01</leafValues></_>
        <_>
          <internalNodes>
            0 -1 173 2.0650623366236687e-02</internalNodes>
          <leafValues>
            -6.5389774739742279e-02 5.1298815011978149e-01</leafValues></_>
        <_>
          <internalNodes>
            0 -1 16 -2.0448690652847290e-01</internalNodes>
          <leafValues>
            3.5473501682281494e-01 -9.5274008810520172e-02</leafValues></_>
        <_>
          <internalNodes>
            0 -1 318 1.9441311451373622e-05</internalNodes>
          <leafValues>
            1.3059660792350769e-01 -2.8394430875778198e-01</leafValues></_>
        <_>
          <internalNodes>
            0 -1 357 -1.7552840290591121e-04</internalNodes>
          <leafValues>
            3.9401230216026306e-01 -8.9581839740276337e-02</leafValues></_>
        <_>
          <internalNodes>
            0 -1 92 8.6765285232104361e-06</internalNodes>
          <leafValues>
            1.3571381568908691e-01 -2.7571520209312439e-01</leafValues></_>
        <_>
          <internalNodes>
            0 -1 177 -5.8907913044095039e-03</internalNodes>
          <leafValues>
            5.5639624595642090e-01 -6.4495183527469635e-02</leafValues></_>
        <_>
          <internalNodes>
            0 -1 74 -7.3611736297607422e-02</internalNodes>
          <leafValues>
            3.3866864442825317e-01 -1.0507815331220627e-01</leafValues></_>
        <_>
          <internalNodes>
            0 -1 27 2.0624790340662003e-03</internalNodes>
          <leafValues>
            -1.7640045285224915e-01 2.3805728554725647e-01</leafValues></_>
        <_>
          <internalNodes>
            0 -1 107 -1.9166328012943268e-02</internalNodes>
          <leafValues>
            4.9919599294662476e-01 -4.7172680497169495e-02</leafValues></_>
        <_>
          <internalNodes>
            0 -1 242 1.8959986045956612e-03</internalNodes>
          <leafValues>
            -1.0575376451015472e-01 3.3229494094848633e-01</leafValues></_>
        <_>
          <internalNodes>
            0 -1 313 -4.7304354666266590e-05</internalNodes>
          <leafValues>
            -3.6477997899055481e-01 9.9476195871829987e-02</leafValues></_>
        <_>
          <internalNodes>
            0 -1 185 1.3233834877610207e-02</internalNodes>
          <leafValues>
            -1.2452486157417297e-01 2.9788082838058472e-01</leafValues></_>
        <_>
          <internalNodes>
            0 -1 147 6.4105945639312267e-03</internalNodes>
          <leafValues>
            -7.9613424837589264e-02 4.4093924760818481e-01</leafValues></_>
        <_>
          <internalNodes>
            0 -1 15 2.3448592983186245e-03</internalNodes>
          <leafValues>
            -6.9324061274528503e-02 4.1439715027809143e-01</leafValues></_>
        <_>
          <internalNodes>
            0 -1 330 -1.0918643325567245e-02</internalNodes>
          <leafValues>
            3.7814646959304810e-01 -9.6992731094360352e-02</leafValues></_>
        <_>
          <internalNodes>
            0 -1 148 8.7955556809902191e-03</internalNodes>
          <leafValues>
            -6.4188033342361450e-02 5.5604064464569092e-01</leafValues></_>
        <_>
          <internalNodes>
            0 -1 301 1.8453316442901269e-05</internalNodes>
          <leafValues>
            1.2335553765296936e-01 -2.9204362630844116e-01</leafValues></_>
        <_>
          <internalNodes>
            0 -1 33 -3.1079072505235672e-04</internalNodes>
          <leafValues>
            -5.3533202409744263e-01 7.7439084649085999e-02</leafValues></_>
        <_>
          <internalNodes>
            0 -1 163 -6.8086496321484447e-04</internalNodes>
          <leafValues>
            4.4891333580017090e-01 -9.2472650110721588e-02</leafValues></_>
        <_>
          <internalNodes>
            0 -1 276 1.2858099580626003e-06</internalNodes>
          <leafValues>
            -1.8352498114109039e-01 1.9899678230285645e-01</leafValues></_>
        <_>
          <internalNodes>
            0 -1 88 -3.3304332755506039e-03</internalNodes>
          <leafValues>
            3.5422936081886292e-01 -1.0401748120784760e-01</leafValues></_>
        <_>
          <internalNodes>
            0 -1 90 9.7611676901578903e-03</internalNodes>
          <leafValues>
            -6.9715805351734161e-02 5.2667617797851562e-01</leafValues></_>
        <_>
          <internalNodes>
            0 -1 362 2.5866852956824005e-04</internalNodes>
          <leafValues>
            -7.9590745270252228e-02 4.2716938257217407e-01</leafValues></_>
        <_>
          <internalNodes>
            0 -1 137 4.3415424443082884e-05</internalNodes>
          <leafValues>
            8.9532874524593353e-02 -4.2490744590759277e-01</leafValues></_>
        <_>
          <internalNodes>
            0 -1 261 -6.1348499730229378e-04</internalNodes>
          <leafValues>
            5.7203263044357300e-01 -5.9905137866735458e-02</leafValues></_>
        <_>
          <internalNodes>
            0 -1 326 -3.5961729008704424e-03</internalNodes>
          <leafValues>
            3.6952382326126099e-01 -8.7928809225559235e-02</leafValues></_>
        <_>
          <internalNodes>
            0 -1 224 -7.0032296935096383e-04</internalNodes>
          <leafValues>
            -5.2387458086013794e-01 7.4088364839553833e-02</leafValues></_>
        <_>
          <internalNodes>
            0 -1 75 -6.4458802808076143e-04</internalNodes>
          <leafValues>
            3.3249747753143311e-01 -1.0987741500139236e-01</leafValues></_>
        <_>
          <internalNodes>
            0 -1 112 3.2224415917880833e-05</internalNodes>
          <leafValues>
            1.1748941987752914e-01 -3.1641024351119995e-01</leafValues></_>
        <_>
          <internalNodes>
            0 -1 274 1.0278904810547829e-03</internalNodes>
          <leafValues>
            1.0475409775972366e-01 -3.5787099599838257e-01</leafValues></_>
        <_>
          <internalNodes>
            0 -1 20 9.9507429695222527e-05</internalNodes>
          <leafValues>
            1.1506347358226776e-01 -3.5381385684013367e-01</leafValues></_>
        <_>
          <internalNodes>
            0 -1 158 5.2823533769696951e-04</internalNodes>
          <leafValues>
            -1.4036612212657928e-01 3.1853932142257690e-01</leafValues></_>
        <_>
          <internalNodes>
            0 -1 334 -1.0454665607539937e-04</internalNodes>
          <leafValues>
            2.3583959043025970e-01 -1.6610984504222870e-01</leafValues></_>
        <_>
          <internalNodes>
            0 -1 190 6.1168861575424671e-03</internalNodes>
          <leafValues>
            -9.9017143249511719e-02 4.0150582790374756e-01</leafValues></_>
        <_>
          <internalNodes>
            0 -1 359 4.6150184061843902e-05</internalNodes>
          <leafValues>
            1.1638384312391281e-01 -3.3514338731765747e-01</leafValues></_>
        <_>
          <internalNodes>
            0 -1 266 6.1734151095151901e-03</internalNodes>
          <leafValues>
            -9.4407580792903900e-02 4.0785253047943115e-01</leafValues></_>
        <_>
          <internalNodes>
            0 -1 240 -1.1432906612753868e-03</internalNodes>
          <leafValues>
            -6.1801129579544067e-01 5.9070270508527756e-02</leafValues></_>
        <_>
          <internalNodes>
            0 -1 11 -8.7974658526945859e-05</internalNodes>
          <leafValues>
            3.2047232985496521e-01 -1.2598088383674622e-01</leafValues></_>
        <_>
          <internalNodes>
            0 -1 259 -5.8611063286662102e-03</internalNodes>
          <leafValues>
            2.0151238143444061e-01 -1.8513128161430359e-01</leafValues></_>
        <_>
          <internalNodes>
            0 -1 314 -6.8952534347772598e-03</internalNodes>
          <leafValues>
            4.0778899192810059e-01 -9.1201305389404297e-02</leafValues></_>
        <_>
          <internalNodes>
            0 -1 324 -6.0163596644997597e-03</internalNodes>
          <leafValues>
            4.8011779785156250e-01 -7.3133073747158051e-02</leafValues></_></weakClassifiers></_>
    <!-- stage 8 -->
    <_>
      <maxWeakCount>49</maxWeakCount>
      <stageThreshold>-8.9216762781143188e-01</stageThreshold>
      <weakClassifiers>
        <_>
          <internalNodes>
            0 -1 355 1.4177791308611631e-03</internalNodes>
          <leafValues>
            -4.8421051353216171e-02 3.4709677100181580e-01</leafValues></_>
        <_>
          <internalNodes>
            0 -1 97 -4.2475163354538381e-04</internalNodes>
          <leafValues>
            2.6195243000984192e-01 -1.4308786392211914e-01</leafValues></_>
        <_>
          <internalNodes>
            0 -1 375 -1.7584117595106363e-03</internalNodes>
          <leafValues>
            -5.3267925977706909e-01 6.6983938217163086e-02</leafValues></_>
        <_>
          <internalNodes>
            0 -1 94 1.8630808591842651e-01</internalNodes>
          <leafValues>
            -5.7760655879974365e-02 5.6320708990097046e-01</leafValues></_>
        <_>
          <internalNodes>
            0 -1 29 -2.5894015561789274e-04</internalNodes>
          <leafValues>
            1.9766102731227875e-01 -1.6367438435554504e-01</leafValues></_>
        <_>
          <internalNodes>
            0 -1 237 2.6522686704993248e-02</internalNodes>
          <leafValues>
            -9.9645473062992096e-02 4.0246480703353882e-01</leafValues></_>
        <_>
          <internalNodes>
            0 -1 98 1.4310600818134844e-05</internalNodes>
          <leafValues>
            1.1287379264831543e-01 -3.1647431850433350e-01</leafValues></_>
        <_>
          <internalNodes>
            0 -1 253 2.0373850129544735e-03</internalNodes>
          <leafValues>
            -9.4141863286495209e-02 3.6423131823539734e-01</leafValues></_>
        <_>
          <internalNodes>
            0 -1 153 2.2916760295629501e-02</internalNodes>
          <leafValues>
            -6.8549796938896179e-02 4.4085934758186340e-01</leafValues></_>
        <_>
          <internalNodes>
            0 -1 162 -8.5574015974998474e-03</internalNodes>
          <leafValues>
            1.9629722833633423e-01 -2.0309919118881226e-01</leafValues></_>
        <_>
          <internalNodes>
            0 -1 348 -4.0579261258244514e-03</internalNodes>
          <leafValues>
            3.7090259790420532e-01 -9.5826506614685059e-02</leafValues></_>
        <_>
          <internalNodes>
            0 -1 23 3.7837445735931396e-02</internalNodes>
          <leafValues>
            -5.0078872591257095e-02 5.9776186943054199e-01</leafValues></_>
        <_>
          <internalNodes>
            0 -1 64 -3.0259085819125175e-02</internalNodes>
          <leafValues>
            3.3177658915519714e-01 -1.1052203178405762e-01</leafValues></_>
        <_>
          <internalNodes>
            0 -1 207 -3.8539872039109468e-03</internalNodes>
          <leafValues>
            3.7715590000152588e-01 -8.4833234548568726e-02</leafValues></_>
        <_>
          <internalNodes>
            0 -1 352 3.9649872633162886e-05</internalNodes>
          <leafValues>
            1.3169452548027039e-01 -2.6388666033744812e-01</leafValues></_>
        <_>
          <internalNodes>
            0 -1 255 -3.3112301025539637e-04</internalNodes>
          <leafValues>
            2.9453313350677490e-01 -1.1382368206977844e-01</leafValues></_>
        <_>
          <internalNodes>
            0 -1 65 -4.0827631892170757e-05</internalNodes>
          <leafValues>
            -3.1950473785400391e-01 1.0609906166791916e-01</leafValues></_>
        <_>
          <internalNodes>
            0 -1 258 5.6241545826196671e-03</internalNodes>
          <leafValues>
            -6.8178117275238037e-02 4.8284074664115906e-01</leafValues></_>
        <_>
          <internalNodes>
            0 -1 322 -4.4008163968101144e-05</internalNodes>
          <leafValues>
            -2.6321494579315186e-01 1.3008508086204529e-01</leafValues></_>
        <_>
          <internalNodes>
            0 -1 167 -2.0735117141157389e-04</internalNodes>
          <leafValues>
            3.4243869781494141e-01 -9.9061340093612671e-02</leafValues></_>
        <_>
          <internalNodes>
            0 -1 312 7.9576193820685148e-04</internalNodes>
          <leafValues>
            -9.1639973223209381e-02 3.6342588067054749e-01</leafValues></_>
        <_>
          <internalNodes>
            0 -1 319 -2.7882377617061138e-04</internalNodes>
          <leafValues>
            2.3188796639442444e-01 -1.3002602756023407e-01</leafValues></_>
        <_>
          <internalNodes>
            0 -1 365 1.1120440904051065e-03</internalNodes>
          <leafValues>
            7.7521130442619324e-02 -4.4143053889274597e-01</leafValues></_>
        <_>
          <internalNodes>
            0 -1 19 -3.3058309927582741e-03</internalNodes>
          <leafValues>
            -4.8435738682746887e-01 6.4303517341613770e-02</leafValues></_>
        <_>
          <internalNodes>
            0 -1 171 3.1897332519292831e-03</internalNodes>
          <leafValues>
            -1.5964341163635254e-01 2.3453067243099213e-01</leafValues></_>
        <_>
          <internalNodes>
            0 -1 1 1.7103490233421326e-01</internalNodes>
          <leafValues>
            -8.9839309453964233e-02 3.9640453457832336e-01</leafValues></_>
        <_>
          <internalNodes>
            0 -1 96 -2.0319740287959576e-03</internalNodes>
          <leafValues>
            3.0919754505157471e-01 -1.1880043148994446e-01</leafValues></_>
        <_>
          <internalNodes>
            0 -1 51 5.8860669378191233e-04</internalNodes>
          <leafValues>
            -7.6586626470088959e-02 4.6266528964042664e-01</leafValues></_>
        <_>
          <internalNodes>
            0 -1 70 3.3901953138411045e-03</internalNodes>
          <leafValues>
            -8.6177423596382141e-02 4.0655666589736938e-01</leafValues></_>
        <_>
          <internalNodes>
            0 -1 42 5.7217759604100138e-05</internalNodes>
          <leafValues>
            8.8527247309684753e-02 -4.1428214311599731e-01</leafValues></_>
        <_>
          <internalNodes>
            0 -1 180 -2.6033929316326976e-04</internalNodes>
          <leafValues>
            2.4150505661964417e-01 -1.4990442991256714e-01</leafValues></_>
        <_>
          <internalNodes>
            0 -1 34 3.2531789038330317e-03</internalNodes>
          <leafValues>
            5.2949070930480957e-02 -6.4185607433319092e-01</leafValues></_>
        <_>
          <internalNodes>
            0 -1 38 -2.8542813379317522e-04</internalNodes>
          <leafValues>
            5.6405091285705566e-01 -7.4606187641620636e-02</leafValues></_>
        <_>
          <internalNodes>
            0 -1 277 2.4490552023053169e-02</internalNodes>
          <leafValues>
            -1.7355561256408691e-01 2.1294437348842621e-01</leafValues></_>
        <_>
          <internalNodes>
            0 -1 59 9.8392165455152281e-06</internalNodes>
          <leafValues>
            1.2338279187679291e-01 -2.8403830528259277e-01</leafValues></_>
        <_>
          <internalNodes>
            0 -1 367 1.0871831327676773e-03</internalNodes>
          <leafValues>
            -8.7635703384876251e-02 3.7263837456703186e-01</leafValues></_>
        <_>
          <internalNodes>
            0 -1 218 1.1873149778693914e-03</internalNodes>
          <leafValues>
            -7.1487180888652802e-02 4.3800020217895508e-01</leafValues></_>
        <_>
          <internalNodes>
            0 -1 45 -1.0308509692549706e-02</internalNodes>
          <leafValues>
            3.6674445867538452e-01 -8.3766132593154907e-02</leafValues></_>
        <_>
          <internalNodes>
            0 -1 346 4.3238559737801552e-04</internalNodes>
          <leafValues>
            6.2910161912441254e-02 -5.6970649957656860e-01</leafValues></_>
        <_>
          <internalNodes>
            0 -1 170 -6.9564208388328552e-04</internalNodes>
          <leafValues>
            4.5919778943061829e-01 -7.8045710921287537e-02</leafValues></_>
        <_>
          <internalNodes>
            0 -1 229 9.8727614386007190e-05</internalNodes>
          <leafValues>
            9.8860561847686768e-02 -3.5886240005493164e-01</leafValues></_>
        <_>
          <internalNodes>
            0 -1 145 5.9990724548697472e-04</internalNodes>
          <leafValues>
            -1.2902343273162842e-01 2.9227355122566223e-01</leafValues></_>
        <_>
          <internalNodes>
            0 -1 156 -4.4139495003037155e-04</internalNodes>
          <leafValues>
            2.0895645022392273e-01 -1.7096559703350067e-01</leafValues></_>
        <_>
          <internalNodes>
            0 -1 344 1.4100112020969391e-02</internalNodes>
          <leafValues>
            -1.0837578773498535e-01 3.0520054697990417e-01</leafValues></_>
        <_>
          <internalNodes>
            0 -1 89 7.6113060116767883e-02</internalNodes>
          <leafValues>
            -7.1298249065876007e-02 5.0739037990570068e-01</leafValues></_>
        <_>
          <internalNodes>
            0 -1 295 2.0579320844262838e-03</internalNodes>
          <leafValues>
            -7.4460253119468689e-02 4.5205104351043701e-01</leafValues></_>
        <_>
          <internalNodes>
            0 -1 275 9.5754643552936614e-05</internalNodes>
          <leafValues>
            1.0434843599796295e-01 -3.4616622328758240e-01</leafValues></_>
        <_>
          <internalNodes>
            0 -1 214 2.6201858418062329e-04</internalNodes>
          <leafValues>
            -1.0103221982717514e-01 3.4078937768936157e-01</leafValues></_>
        <_>
          <internalNodes>
            0 -1 211 1.6291510546579957e-03</internalNodes>
          <leafValues>
            -8.2081846892833710e-02 4.0845665335655212e-01</leafValues></_></weakClassifiers></_>
    <!-- stage 9 -->
    <_>
      <maxWeakCount>50</maxWeakCount>
      <stageThreshold>-9.8795974254608154e-01</stageThreshold>
      <weakClassifiers>
        <_>
          <internalNodes>
            0 -1 154 -2.1915137767791748e-02</internalNodes>
          <leafValues>
            3.7604457139968872e-01 -4.7233469784259796e-02</leafValues></_>
        <_>
          <internalNodes>
            0 -1 159 -4.6528247185051441e-03</internalNodes>
          <leafValues>
            3.3904692530632019e-01 -9.9894173443317413e-02</leafValues></_>
        <_>
          <internalNodes>
            0 -1 50 2.2385687771020457e-05</internalNodes>
          <leafValues>
            8.2322798669338226e-02 -3.1765297055244446e-01</leafValues></_>
        <_>
          <internalNodes>
            0 -1 235 -5.2242837846279144e-02</internalNodes>
          <leafValues>
            5.2655768394470215e-01 -4.6237125992774963e-02</leafValues></_>
        <_>
          <internalNodes>
            0 -1 175 1.0573666542768478e-02</internalNodes>
          <leafValues>
            -1.1319729685783386e-01 3.3385145664215088e-01</leafValues></_>
        <_>
          <internalNodes>
            0 -1 320 5.8223190717399120e-03</internalNodes>
          <leafValues>
            6.8732030689716339e-02 -5.7314449548721313e-01</leafValues></_>
        <_>
          <internalNodes>
            0 -1 44 4.1161336412187666e-05</internalNodes>
          <leafValues>
            1.4501278102397919e-01 -2.4223908782005310e-01</leafValues></_>
        <_>
          <internalNodes>
            0 -1 338 1.0821850970387459e-02</internalNodes>
          <leafValues>
            5.2298974245786667e-02 -4.1177138686180115e-01</leafValues></_>
        <_>
          <internalNodes>
            0 -1 310 -5.3672624744649511e-06</internalNodes>
          <leafValues>
            -2.1131795644760132e-01 1.3471260666847229e-01</leafValues></_>
        <_>
          <internalNodes>
            0 -1 361 -1.8229839042760432e-04</internalNodes>
          <leafValues>
            3.9866107702255249e-01 -5.6045576930046082e-02</leafValues></_>
        <_>
          <internalNodes>
            0 -1 134 1.1192048259545118e-04</internalNodes>
          <leafValues>
            5.7347904890775681e-02 -4.7790586948394775e-01</leafValues></_>
        <_>
          <internalNodes>
            0 -1 316 -9.4263087958097458e-03</internalNodes>
          <leafValues>
            2.4345709383487701e-01 -1.2306667864322662e-01</leafValues></_>
        <_>
          <internalNodes>
            0 -1 288 -1.3267943635582924e-02</internalNodes>
          <leafValues>
            2.9417532682418823e-01 -1.1550421267747879e-01</leafValues></_>
        <_>
          <internalNodes>
            0 -1 39 -2.0348589867353439e-02</internalNodes>
          <leafValues>
            2.5585421919822693e-01 -1.5381613373756409e-01</leafValues></_>
        <_>
          <internalNodes>
            0 -1 155 -1.5989422798156738e-02</internalNodes>
          <leafValues>
            2.8596317768096924e-01 -1.2333811819553375e-01</leafValues></_>
        <_>
          <internalNodes>
            0 -1 24 -2.2022513439878821e-04</internalNodes>
          <leafValues>
            3.8563248515129089e-01 -6.9939501583576202e-02</leafValues></_>
        <_>
          <internalNodes>
            0 -1 366 3.7935462314635515e-03</internalNodes>
          <leafValues>
            -7.7567160129547119e-02 4.2230895161628723e-01</leafValues></_>
        <_>
          <internalNodes>
            0 -1 336 1.0911352932453156e-02</internalNodes>
          <leafValues>
            -1.3875955343246460e-01 2.2762495279312134e-01</leafValues></_>
        <_>
          <internalNodes>
            0 -1 49 -6.0740290209650993e-03</internalNodes>
          <leafValues>
            -6.1168122291564941e-01 5.4485838860273361e-02</leafValues></_>
        <_>
          <internalNodes>
            0 -1 38 1.6040995251387358e-04</internalNodes>
          <leafValues>
            -8.4868453443050385e-02 4.0282401442527771e-01</leafValues></_>
        <_>
          <internalNodes>
            0 -1 0 -2.3560653062304482e-05</internalNodes>
          <leafValues>
            -3.1813973188400269e-01 1.0803692042827606e-01</leafValues></_>
        <_>
          <internalNodes>
            0 -1 25 -1.2496777344495058e-03</internalNodes>
          <leafValues>
            -4.0229994058609009e-01 7.0765435695648193e-02</leafValues></_>
        <_>
          <internalNodes>
            0 -1 146 -1.4198454664438032e-05</internalNodes>
          <leafValues>
            -3.3713224530220032e-01 9.3950957059860229e-02</leafValues></_>
        <_>
          <internalNodes>
            0 -1 251 6.2557053752243519e-04</internalNodes>
          <leafValues>
            -6.5463386476039886e-02 5.1997315883636475e-01</leafValues></_>
        <_>
          <internalNodes>
            0 -1 206 3.7141665816307068e-03</internalNodes>
          <leafValues>
            -4.3554440140724182e-02 6.3435316085815430e-01</leafValues></_>
        <_>
          <internalNodes>
            0 -1 60 -2.0843941718339920e-02</internalNodes>
          <leafValues>
            3.3758947253227234e-01 -9.0532518923282623e-02</leafValues></_>
        <_>
          <internalNodes>
            0 -1 141 1.3470305129885674e-03</internalNodes>
          <leafValues>
            -1.6340647637844086e-01 2.3628602921962738e-01</leafValues></_>
        <_>
          <internalNodes>
            0 -1 234 -4.8047539894469082e-04</internalNodes>
          <leafValues>
            -4.0284278988838196e-01 8.9239723980426788e-02</leafValues></_>
        <_>
          <internalNodes>
            0 -1 142 -2.1090373396873474e-02</internalNodes>
          <leafValues>
            3.2093587517738342e-01 -1.0408090054988861e-01</leafValues></_>
        <_>
          <internalNodes>
            0 -1 376 9.8710414022207260e-04</internalNodes>
          <leafValues>
            4.9617014825344086e-02 -7.5221848487854004e-01</leafValues></_>
        <_>
          <internalNodes>
            0 -1 267 2.1798266097903252e-03</internalNodes>
          <leafValues>
            4.2634956538677216e-02 -6.7063856124877930e-01</leafValues></_>
        <_>
          <internalNodes>
            0 -1 76 -1.1397987604141235e-02</internalNodes>
          <leafValues>
            4.8022499680519104e-01 -7.4328511953353882e-02</leafValues></_>
        <_>
          <internalNodes>
            0 -1 86 3.3154520206153393e-03</internalNodes>
          <leafValues>
            -8.2444347441196442e-02 3.7918394804000854e-01</leafValues></_>
        <_>
          <internalNodes>
            0 -1 302 -1.3163058611098677e-05</internalNodes>
          <leafValues>
            -3.1170615553855896e-01 1.0592660307884216e-01</leafValues></_>
        <_>
          <internalNodes>
            0 -1 298 1.1107885802630335e-04</internalNodes>
          <leafValues>
            -1.0311132669448853e-01 3.7272858619689941e-01</leafValues></_>
        <_>
          <internalNodes>
            0 -1 139 -9.3413819558918476e-04</internalNodes>
          <leafValues>
            2.5547978281974792e-01 -1.3231056928634644e-01</leafValues></_>
        <_>
          <internalNodes>
            0 -1 184 -9.1582699678838253e-04</internalNodes>
          <leafValues>
            2.5014114379882812e-01 -1.2924331426620483e-01</leafValues></_>
        <_>
          <internalNodes>
            0 -1 182 -7.4660725658759475e-05</internalNodes>
          <leafValues>
            2.5407972931861877e-01 -1.5899983048439026e-01</leafValues></_>
        <_>
          <internalNodes>
            0 -1 200 -1.6922764480113983e-03</internalNodes>
          <leafValues>
            -6.7534393072128296e-01 4.8150587826967239e-02</leafValues></_>
        <_>
          <internalNodes>
            0 -1 284 1.9399225129745901e-04</internalNodes>
          <leafValues>
            -7.5895652174949646e-02 4.4115588068962097e-01</leafValues></_>
        <_>
          <internalNodes>
            0 -1 350 2.0497376681305468e-04</internalNodes>
          <leafValues>
            -5.2318550646305084e-02 5.4667204618453979e-01</leafValues></_>
        <_>
          <internalNodes>
            0 -1 197 -2.0893309265375137e-02</internalNodes>
          <leafValues>
            3.2170188426971436e-01 -9.7931005060672760e-02</leafValues></_>
        <_>
          <internalNodes>
            0 -1 285 9.7422637045383453e-03</internalNodes>
          <leafValues>
            -4.3957866728305817e-02 7.3417288064956665e-01</leafValues></_>
        <_>
          <internalNodes>
            0 -1 332 4.9976131413131952e-04</internalNodes>
          <leafValues>
            5.3563717752695084e-02 -7.2688043117523193e-01</leafValues></_>
        <_>
          <internalNodes>
            0 -1 354 2.8491200646385550e-04</internalNodes>
          <leafValues>
            -8.5484020411968231e-02 4.3560433387756348e-01</leafValues></_>
        <_>
          <internalNodes>
            0 -1 131 3.6431155167520046e-03</internalNodes>
          <leafValues>
            -7.6070137321949005e-02 4.1005888581275940e-01</leafValues></_>
        <_>
          <internalNodes>
            0 -1 130 5.5760843679308891e-03</internalNodes>
          <leafValues>
            -7.0202581584453583e-02 4.5289090275764465e-01</leafValues></_>
        <_>
          <internalNodes>
            0 -1 47 -1.1437065899372101e-01</internalNodes>
          <leafValues>
            2.5912705063819885e-01 -1.4970585703849792e-01</leafValues></_>
        <_>
          <internalNodes>
            0 -1 69 4.7859159531071782e-04</internalNodes>
          <leafValues>
            7.9945228993892670e-02 -4.3781533837318420e-01</leafValues></_>
        <_>
          <internalNodes>
            0 -1 68 4.6868935896782205e-05</internalNodes>
          <leafValues>
            1.3340683281421661e-01 -2.5074863433837891e-01</leafValues></_></weakClassifiers></_></stages>
  <features>
    <_>
      <rects>
        <_>
          0 0 2 2 -1.</_>
        <_>
          0 1 2 1 2.</_></rects>
      <tilted>0</tilted></_>
    <_>
      <rects>
        <_>
          0 0 57 56 -1.</_>
        <_>
          0 14 57 28 2.</_></rects>
      <tilted>0</tilted></_>
    <_>
      <rects>
        <_>
          0 4 12 53 -1.</_>
        <_>
          6 4 6 53 2.</_></rects>
      <tilted>0</tilted></_>
    <_>
      <rects>
        <_>
          0 5 6 15 -1.</_>
        <_>
          0 10 6 5 3.</_></rects>
      <tilted>0</tilted></_>
    <_>
      <rects>
        <_>
          0 6 6 43 -1.</_>
        <_>
          3 6 3 43 2.</_></rects>
      <tilted>0</tilted></_>
    <_>
      <rects>
        <_>
          0 8 1 12 -1.</_>
        <_>
          0 14 1 6 2.</_></rects>
      <tilted>0</tilted></_>
    <_>
      <rects>
        <_>
          0 11 4 48 -1.</_>
        <_>
          2 11 2 48 2.</_></rects>
      <tilted>0</tilted></_>
    <_>
      <rects>
        <_>
          0 12 4 37 -1.</_>
        <_>
          2 12 2 37 2.</_></rects>
      <tilted>0</tilted></_>
    <_>
      <rects>
        <_>
          0 14 1 4 -1.</_>
        <_>
          0 16 1 2 2.</_></rects>
      <tilted>0</tilted></_>
    <_>
      <rects>
        <_>
          0 14 6 46 -1.</_>
        <_>
          0 14 3 23 2.</_>
        <_>
          3 37 3 23 2.</_></rects>
      <tilted>0</tilted></_>
    <_>
      <rects>
        <_>
          0 14 80 35 -1.</_>
        <_>
          20 14 40 35 2.</_></rects>
      <tilted>0</tilted></_>
    <_>
      <rects>
        <_>
          0 15 3 4 -1.</_>
        <_>
          1 15 1 4 3.</_></rects>
      <tilted>0</tilted></_>
    <_>
      <rects>
        <_>
          0 15 2 37 -1.</_>
        <_>
          1 15 1 37 2.</_></rects>
      <tilted>0</tilted></_>
    <_>
      <rects>
        <_>
          0 15 2 41 -1.</_>
        <_>
          1 15 1 41 2.</_></rects>
      <tilted>0</tilted></_>
    <_>
      <rects>
        <_>
          0 16 6 2 -1.</_>
        <_>
          2 16 2 2 3.</_></rects>
      <tilted>0</tilted></_>
    <_>
      <rects>
        <_>
          0 16 4 38 -1.</_>
        <_>
          0 16 2 19 2.</_>
        <_>
          2 35 2 19 2.</_></rects>
      <tilted>0</tilted></_>
    <_>
      <rects>
        <_>
          0 17 54 39 -1.</_>
        <_>
          18 30 18 13 9.</_></rects>
      <tilted>0</tilted></_>
    <_>
      <rects>
        <_>
          0 18 2 25 -1.</_>
        <_>
          1 18 1 25 2.</_></rects>
      <tilted>0</tilted></_>
    <_>
      <rects>
        <_>
          0 19 2 28 -1.</_>
        <_>
          0 19 1 14 2.</_>
        <_>
          1 33 1 14 2.</_></rects>
      <tilted>0</tilted></_>
    <_>
      <rects>
        <_>
          0 25 5 12 -1.</_>
        <_>
          0 29 5 4 3.</_></rects>
      <tilted>0</tilted></_>
    <_>
      <rects>
        <_>
          0 28 2 6 -1.</_>
        <_>
          0 30 2 2 3.</_></rects>
      <tilted>0</tilted></_>
    <_>
      <rects>
        <_>
          0 31 48 26 -1.</_>
        <_>
          0 31 24 13 2.</_>
        <_>
          24 44 24 13 2.</_></rects>
      <tilted>0</tilted></_>
    <_>
      <rects>
        <_>
          0 33 18 7 -1.</_>
        <_>
          9 33 9 7 2.</_></rects>
      <tilted>0</tilted></_>
    <_>
      <rects>
        <_>
          0 40 76 4 -1.</_>
        <_>
          19 40 38 4 2.</_></rects>
      <tilted>0</tilted></_>
    <_>
      <rects>
        <_>
          0 43 8 1 -1.</_>
        <_>
          2 43 4 1 2.</_></rects>
      <tilted>0</tilted></_>
    <_>
      <rects>
        <_>
          0 45 2 15 -1.</_>
        <_>
          0 50 2 5 3.</_></rects>
      <tilted>0</tilted></_>
    <_>
      <rects>
        <_>
          1 0 4 4 -1.</_>
        <_>
          1 2 4 2 2.</_></rects>
      <tilted>0</tilted></_>
    <_>
      <rects>
        <_>
          1 1 24 1 -1.</_>
        <_>
          1 1 12 1 2.</_></rects>
      <tilted>1</tilted></_>
    <_>
      <rects>
        <_>
          1 6 2 38 -1.</_>
        <_>
          1 6 1 19 2.</_>
        <_>
          2 25 1 19 2.</_></rects>
      <tilted>0</tilted></_>
    <_>
      <rects>
        <_>
          1 11 2 40 -1.</_>
        <_>
          2 11 1 40 2.</_></rects>
      <tilted>0</tilted></_>
    <_>
      <rects>
        <_>
          1 24 8 4 -1.</_>
        <_>
          1 25 8 2 2.</_></rects>
      <tilted>0</tilted></_>
    <_>
      <rects>
        <_>
          1 35 7 6 -1.</_>
        <_>
          1 37 7 2 3.</_></rects>
      <tilted>0</tilted></_>
    <_>
      <rects>
        <_>
          1 49 4 8 -1.</_>
        <_>
          1 51 4 4 2.</_></rects>
      <tilted>0</tilted></_>
    <_>
      <rects>
        <_>
          1 56 2 4 -1.</_>
        <_>
          1 58 2 2 2.</_></rects>
      <tilted>0</tilted></_>
    <_>
      <rects>
        <_>
          2 0 3 12 -1.</_>
        <_>
          2 4 3 4 3.</_></rects>
      <tilted>0</tilted></_>
    <_>
      <rects>
        <_>
          2 38 1 4 -1.</_>
        <_>
          2 40 1 2 2.</_></rects>
      <tilted>0</tilted></_>
    <_>
      <rects>
        <_>
          2 40 1 2 -1.</_>
        <_>
          2 40 1 1 2.</_></rects>
      <tilted>1</tilted></_>
    <_>
      <rects>
        <_>
          2 43 66 8 -1.</_>
        <_>
          2 43 33 4 2.</_>
        <_>
          35 47 33 4 2.</_></rects>
      <tilted>0</tilted></_>
    <_>
      <rects>
        <_>
          3 8 3 4 -1.</_>
        <_>
          4 8 1 4 3.</_></rects>
      <tilted>0</tilted></_>
    <_>
      <rects>
        <_>
          3 37 74 14 -1.</_>
        <_>
          3 44 74 7 2.</_></rects>
      <tilted>0</tilted></_>
    <_>
      <rects>
        <_>
          3 39 2 2 -1.</_>
        <_>
          4 39 1 2 2.</_></rects>
      <tilted>0</tilted></_>
    <_>
      <rects>
        <_>
          4 1 34 3 -1.</_>
        <_>
          4 1 17 3 2.</_></rects>
      <tilted>1</tilted></_>
    <_>
      <rects>
        <_>
          4 13 2 2 -1.</_>
        <_>
          4 14 2 1 2.</_></rects>
      <tilted>0</tilted></_>
    <_>
      <rects>
        <_>
          4 34 33 5 -1.</_>
        <_>
          15 34 11 5 3.</_></rects>
      <tilted>0</tilted></_>
    <_>
      <rects>
        <_>
          4 37 3 2 -1.</_>
        <_>
          5 38 1 2 3.</_></rects>
      <tilted>1</tilted></_>
    <_>
      <rects>
        <_>
          4 47 50 8 -1.</_>
        <_>
          4 47 25 4 2.</_>
        <_>
          29 51 25 4 2.</_></rects>
      <tilted>0</tilted></_>
    <_>
      <rects>
        <_>
          5 27 57 30 -1.</_>
        <_>
          24 37 19 10 9.</_></rects>
      <tilted>0</tilted></_>
    <_>
      <rects>
        <_>
          5 33 75 24 -1.</_>
        <_>
          30 41 25 8 9.</_></rects>
      <tilted>0</tilted></_>
    <_>
      <rects>
        <_>
          5 35 27 3 -1.</_>
        <_>
          14 36 9 1 9.</_></rects>
      <tilted>0</tilted></_>
    <_>
      <rects>
        <_>
          5 39 8 4 -1.</_>
        <_>
          5 39 4 4 2.</_></rects>
      <tilted>1</tilted></_>
    <_>
      <rects>
        <_>
          5 41 3 4 -1.</_>
        <_>
          6 41 1 4 3.</_></rects>
      <tilted>0</tilted></_>
    <_>
      <rects>
        <_>
          6 8 2 4 -1.</_>
        <_>
          6 8 1 4 2.</_></rects>
      <tilted>1</tilted></_>
    <_>
      <rects>
        <_>
          6 27 33 1 -1.</_>
        <_>
          17 27 11 1 3.</_></rects>
      <tilted>0</tilted></_>
    <_>
      <rects>
        <_>
          6 38 6 6 -1.</_>
        <_>
          4 40 6 2 3.</_></rects>
      <tilted>1</tilted></_>
    <_>
      <rects>
        <_>
          6 39 4 3 -1.</_>
        <_>
          7 40 2 3 2.</_></rects>
      <tilted>1</tilted></_>
    <_>
      <rects>
        <_>
          6 45 2 1 -1.</_>
        <_>
          7 45 1 1 2.</_></rects>
      <tilted>0</tilted></_>
    <_>
      <rects>
        <_>
          7 33 69 9 -1.</_>
        <_>
          30 36 23 3 9.</_></rects>
      <tilted>0</tilted></_>
    <_>
      <rects>
        <_>
          7 39 24 9 -1.</_>
        <_>
          15 42 8 3 9.</_></rects>
      <tilted>0</tilted></_>
    <_>
      <rects>
        <_>
          8 2 42 14 -1.</_>
        <_>
          8 2 21 7 2.</_>
        <_>
          29 9 21 7 2.</_></rects>
      <tilted>0</tilted></_>
    <_>
      <rects>
        <_>
          8 7 3 1 -1.</_>
        <_>
          9 7 1 1 3.</_></rects>
      <tilted>0</tilted></_>
    <_>
      <rects>
        <_>
          8 16 45 9 -1.</_>
        <_>
          23 16 15 9 3.</_></rects>
      <tilted>0</tilted></_>
    <_>
      <rects>
        <_>
          8 19 24 34 -1.</_>
        <_>
          8 19 12 17 2.</_>
        <_>
          20 36 12 17 2.</_></rects>
      <tilted>0</tilted></_>
    <_>
      <rects>
        <_>
          8 29 72 30 -1.</_>
        <_>
          32 39 24 10 9.</_></rects>
      <tilted>0</tilted></_>
    <_>
      <rects>
        <_>
          8 36 31 20 -1.</_>
        <_>
          8 41 31 10 2.</_></rects>
      <tilted>0</tilted></_>
    <_>
      <rects>
        <_>
          9 1 64 14 -1.</_>
        <_>
          9 8 64 7 2.</_></rects>
      <tilted>0</tilted></_>
    <_>
      <rects>
        <_>
          9 2 4 1 -1.</_>
        <_>
          11 2 2 1 2.</_></rects>
      <tilted>0</tilted></_>
    <_>
      <rects>
        <_>
          9 19 66 36 -1.</_>
        <_>
          31 31 22 12 9.</_></rects>
      <tilted>0</tilted></_>
    <_>
      <rects>
        <_>
          9 23 66 27 -1.</_>
        <_>
          31 32 22 9 9.</_></rects>
      <tilted>0</tilted></_>
    <_>
      <rects>
        <_>
          9 30 4 3 -1.</_>
        <_>
          10 31 2 3 2.</_></rects>
      <tilted>1</tilted></_>
    <_>
      <rects>
        <_>
          9 56 6 3 -1.</_>
        <_>
          12 56 3 3 2.</_></rects>
      <tilted>0</tilted></_>
    <_>
      <rects>
        <_>
          10 1 8 10 -1.</_>
        <_>
          12 3 4 10 2.</_></rects>
      <tilted>1</tilted></_>
    <_>
      <rects>
        <_>
          10 2 28 20 -1.</_>
        <_>
          10 2 14 10 2.</_>
        <_>
          24 12 14 10 2.</_></rects>
      <tilted>0</tilted></_>
    <_>
      <rects>
        <_>
          10 17 2 2 -1.</_>
        <_>
          10 18 2 1 2.</_></rects>
      <tilted>0</tilted></_>
    <_>
      <rects>
        <_>
          10 19 34 8 -1.</_>
        <_>
          10 19 17 4 2.</_>
        <_>
          27 23 17 4 2.</_></rects>
      <tilted>0</tilted></_>
    <_>
      <rects>
        <_>
          10 27 42 24 -1.</_>
        <_>
          10 39 42 12 2.</_></rects>
      <tilted>0</tilted></_>
    <_>
      <rects>
        <_>
          10 57 50 2 -1.</_>
        <_>
          10 57 25 1 2.</_>
        <_>
          35 58 25 1 2.</_></rects>
      <tilted>0</tilted></_>
    <_>
      <rects>
        <_>
          11 6 12 11 -1.</_>
        <_>
          14 9 6 11 2.</_></rects>
      <tilted>1</tilted></_>
    <_>
      <rects>
        <_>
          11 12 64 27 -1.</_>
        <_>
          27 12 32 27 2.</_></rects>
      <tilted>0</tilted></_>
    <_>
      <rects>
        <_>
          11 19 20 2 -1.</_>
        <_>
          16 19 10 2 2.</_></rects>
      <tilted>0</tilted></_>
    <_>
      <rects>
        <_>
          11 20 60 33 -1.</_>
        <_>
          31 31 20 11 9.</_></rects>
      <tilted>0</tilted></_>
    <_>
      <rects>
        <_>
          12 20 54 4 -1.</_>
        <_>
          12 20 27 2 2.</_>
        <_>
          39 22 27 2 2.</_></rects>
      <tilted>0</tilted></_>
    <_>
      <rects>
        <_>
          12 33 37 16 -1.</_>
        <_>
          12 41 37 8 2.</_></rects>
      <tilted>0</tilted></_>
    <_>
      <rects>
        <_>
          12 45 3 1 -1.</_>
        <_>
          13 46 1 1 3.</_></rects>
      <tilted>1</tilted></_>
    <_>
      <rects>
        <_>
          12 46 4 2 -1.</_>
        <_>
          13 46 2 2 2.</_></rects>
      <tilted>0</tilted></_>
    <_>
      <rects>
        <_>
          13 2 30 8 -1.</_>
        <_>
          13 2 15 4 2.</_>
        <_>
          28 6 15 4 2.</_></rects>
      <tilted>0</tilted></_>
    <_>
      <rects>
        <_>
          13 5 14 22 -1.</_>
        <_>
          13 5 7 11 2.</_>
        <_>
          20 16 7 11 2.</_></rects>
      <tilted>0</tilted></_>
    <_>
      <rects>
        <_>
          13 7 8 13 -1.</_>
        <_>
          15 9 4 13 2.</_></rects>
      <tilted>1</tilted></_>
    <_>
      <rects>
        <_>
          13 34 60 18 -1.</_>
        <_>
          13 34 30 9 2.</_>
        <_>
          43 43 30 9 2.</_></rects>
      <tilted>0</tilted></_>
    <_>
      <rects>
        <_>
          14 3 46 4 -1.</_>
        <_>
          14 5 46 2 2.</_></rects>
      <tilted>0</tilted></_>
    <_>
      <rects>
        <_>
          14 9 39 12 -1.</_>
        <_>
          27 13 13 4 9.</_></rects>
      <tilted>0</tilted></_>
    <_>
      <rects>
        <_>
          14 23 26 8 -1.</_>
        <_>
          14 23 13 4 2.</_>
        <_>
          27 27 13 4 2.</_></rects>
      <tilted>0</tilted></_>
    <_>
      <rects>
        <_>
          14 34 18 6 -1.</_>
        <_>
          14 34 9 3 2.</_>
        <_>
          23 37 9 3 2.</_></rects>
      <tilted>0</tilted></_>
    <_>
      <rects>
        <_>
          14 53 2 1 -1.</_>
        <_>
          15 53 1 1 2.</_></rects>
      <tilted>0</tilted></_>
    <_>
      <rects>
        <_>
          15 0 52 60 -1.</_>
        <_>
          15 15 52 30 2.</_></rects>
      <tilted>0</tilted></_>
    <_>
      <rects>
        <_>
          15 8 60 15 -1.</_>
        <_>
          35 13 20 5 9.</_></rects>
      <tilted>0</tilted></_>
    <_>
      <rects>
        <_>
          15 14 16 12 -1.</_>
        <_>
          15 14 8 6 2.</_>
        <_>
          23 20 8 6 2.</_></rects>
      <tilted>0</tilted></_>
    <_>
      <rects>
        <_>
          15 32 18 4 -1.</_>
        <_>
          15 32 18 2 2.</_></rects>
      <tilted>1</tilted></_>
    <_>
      <rects>
        <_>
          15 38 16 4 -1.</_>
        <_>
          15 38 8 2 2.</_>
        <_>
          23 40 8 2 2.</_></rects>
      <tilted>0</tilted></_>
    <_>
      <rects>
        <_>
          15 42 2 1 -1.</_>
        <_>
          16 42 1 1 2.</_></rects>
      <tilted>0</tilted></_>
    <_>
      <rects>
        <_>
          16 24 32 12 -1.</_>
        <_>
          16 24 16 6 2.</_>
        <_>
          32 30 16 6 2.</_></rects>
      <tilted>0</tilted></_>
    <_>
      <rects>
        <_>
          16 24 17 9 -1.</_>
        <_>
          13 27 17 3 3.</_></rects>
      <tilted>1</tilted></_>
    <_>
      <rects>
        <_>
          16 29 30 16 -1.</_>
        <_>
          16 29 15 8 2.</_>
        <_>
          31 37 15 8 2.</_></rects>
      <tilted>0</tilted></_>
    <_>
      <rects>
        <_>
          17 0 6 17 -1.</_>
        <_>
          19 2 2 17 3.</_></rects>
      <tilted>1</tilted></_>
    <_>
      <rects>
        <_>
          17 0 12 17 -1.</_>
        <_>
          17 0 6 17 2.</_></rects>
      <tilted>1</tilted></_>
    <_>
      <rects>
        <_>
          17 3 39 21 -1.</_>
        <_>
          30 10 13 7 9.</_></rects>
      <tilted>0</tilted></_>
    <_>
      <rects>
        <_>
          17 14 19 16 -1.</_>
        <_>
          13 18 19 8 2.</_></rects>
      <tilted>1</tilted></_>
    <_>
      <rects>
        <_>
          17 44 40 6 -1.</_>
        <_>
          17 44 20 3 2.</_>
        <_>
          37 47 20 3 2.</_></rects>
      <tilted>0</tilted></_>
    <_>
      <rects>
        <_>
          17 47 44 12 -1.</_>
        <_>
          17 47 22 6 2.</_>
        <_>
          39 53 22 6 2.</_></rects>
      <tilted>0</tilted></_>
    <_>
      <rects>
        <_>
          18 39 49 16 -1.</_>
        <_>
          18 47 49 8 2.</_></rects>
      <tilted>0</tilted></_>
    <_>
      <rects>
        <_>
          18 42 20 12 -1.</_>
        <_>
          18 42 10 6 2.</_>
        <_>
          28 48 10 6 2.</_></rects>
      <tilted>0</tilted></_>
    <_>
      <rects>
        <_>
          18 52 2 2 -1.</_>
        <_>
          19 52 1 2 2.</_></rects>
      <tilted>0</tilted></_>
    <_>
      <rects>
        <_>
          19 0 42 18 -1.</_>
        <_>
          19 9 42 9 2.</_></rects>
      <tilted>0</tilted></_>
    <_>
      <rects>
        <_>
          19 1 6 1 -1.</_>
        <_>
          21 1 2 1 3.</_></rects>
      <tilted>0</tilted></_>
    <_>
      <rects>
        <_>
          19 8 3 3 -1.</_>
        <_>
          20 9 1 3 3.</_></rects>
      <tilted>1</tilted></_>
    <_>
      <rects>
        <_>
          19 29 39 27 -1.</_>
        <_>
          32 38 13 9 9.</_></rects>
      <tilted>0</tilted></_>
    <_>
      <rects>
        <_>
          19 46 3 2 -1.</_>
        <_>
          20 46 1 2 3.</_></rects>
      <tilted>0</tilted></_>
    <_>
      <rects>
        <_>
          20 8 6 2 -1.</_>
        <_>
          20 8 3 1 2.</_>
        <_>
          23 9 3 1 2.</_></rects>
      <tilted>0</tilted></_>
    <_>
      <rects>
        <_>
          20 18 36 14 -1.</_>
        <_>
          20 18 18 7 2.</_>
        <_>
          38 25 18 7 2.</_></rects>
      <tilted>0</tilted></_>
    <_>
      <rects>
        <_>
          20 19 20 6 -1.</_>
        <_>
          20 19 10 3 2.</_>
        <_>
          30 22 10 3 2.</_></rects>
      <tilted>0</tilted></_>
    <_>
      <rects>
        <_>
          20 22 18 20 -1.</_>
        <_>
          15 27 18 10 2.</_></rects>
      <tilted>1</tilted></_>
    <_>
      <rects>
        <_>
          20 25 39 27 -1.</_>
        <_>
          33 34 13 9 9.</_></rects>
      <tilted>0</tilted></_>
    <_>
      <rects>
        <_>
          20 47 24 2 -1.</_>
        <_>
          20 47 12 1 2.</_>
        <_>
          32 48 12 1 2.</_></rects>
      <tilted>0</tilted></_>
    <_>
      <rects>
        <_>
          21 1 6 22 -1.</_>
        <_>
          21 1 3 11 2.</_>
        <_>
          24 12 3 11 2.</_></rects>
      <tilted>0</tilted></_>
    <_>
      <rects>
        <_>
          21 9 24 16 -1.</_>
        <_>
          21 9 12 8 2.</_>
        <_>
          33 17 12 8 2.</_></rects>
      <tilted>0</tilted></_>
    <_>
      <rects>
        <_>
          21 13 21 20 -1.</_>
        <_>
          16 18 21 10 2.</_></rects>
      <tilted>1</tilted></_>
    <_>
      <rects>
        <_>
          21 16 10 12 -1.</_>
        <_>
          21 16 5 6 2.</_>
        <_>
          26 22 5 6 2.</_></rects>
      <tilted>0</tilted></_>
    <_>
      <rects>
        <_>
          21 16 22 14 -1.</_>
        <_>
          21 16 11 7 2.</_>
        <_>
          32 23 11 7 2.</_></rects>
      <tilted>0</tilted></_>
    <_>
      <rects>
        <_>
          21 21 28 39 -1.</_>
        <_>
          28 21 14 39 2.</_></rects>
      <tilted>0</tilted></_>
    <_>
      <rects>
        <_>
          21 21 51 3 -1.</_>
        <_>
          38 22 17 1 9.</_></rects>
      <tilted>0</tilted></_>
    <_>
      <rects>
        <_>
          21 22 12 1 -1.</_>
        <_>
          24 22 6 1 2.</_></rects>
      <tilted>0</tilted></_>
    <_>
      <rects>
        <_>
          21 33 23 4 -1.</_>
        <_>
          21 33 23 2 2.</_></rects>
      <tilted>1</tilted></_>
    <_>
      <rects>
        <_>
          21 34 11 8 -1.</_>
        <_>
          19 36 11 4 2.</_></rects>
      <tilted>1</tilted></_>
    <_>
      <rects>
        <_>
          21 48 13 12 -1.</_>
        <_>
          21 51 13 6 2.</_></rects>
      <tilted>0</tilted></_>
    <_>
      <rects>
        <_>
          21 48 40 6 -1.</_>
        <_>
          21 48 20 3 2.</_>
        <_>
          41 51 20 3 2.</_></rects>
      <tilted>0</tilted></_>
    <_>
      <rects>
        <_>
          21 52 3 4 -1.</_>
        <_>
          22 52 1 4 3.</_></rects>
      <tilted>0</tilted></_>
    <_>
      <rects>
        <_>
